[
  { "nodeid": 0, "depth": 0, "split": "distance_to_sticks", "split_condition": -0.5, "yes": 1, "no": 2, "missing": 1 , "gain": 11026.2275, "cover": 46537.8711, "children": [
    { "nodeid": 1, "depth": 1, "split": "qb_hit", "split_condition": 0.5, "yes": 3, "no": 4, "missing": 3 , "gain": 2402.72852, "cover": 25459.9648, "children": [
      { "nodeid": 3, "depth": 2, "split": "distance_to_sticks", "split_condition": -10.5, "yes": 7, "no": 8, "missing": 7 , "gain": 683.13623, "cover": 23752.7617, "children": [
        { "nodeid": 7, "depth": 3, "split": "air_is_zero", "split_condition": 1, "yes": 15, "no": 16, "missing": 15 , "gain": 141.424316, "cover": 5774.6416, "children": [
          { "nodeid": 15, "leaf": 0.021553969 , "cover": 5442.06299 }, 
          { "nodeid": 16, "leaf": 0.00474436861 , "cover": 332.578308 }
        ]}, 
        { "nodeid": 8, "depth": 3, "split": "distance_to_sticks", "split_condition": -3.5, "yes": 17, "no": 18, "missing": 17 , "gain": 245.352539, "cover": 17978.1191, "children": [
          { "nodeid": 17, "leaf": 0.0125978617 , "cover": 12648.4707 }, 
          { "nodeid": 18, "leaf": 0.00620099483 , "cover": 5329.64893 }
        ]}
      ]}, 
      { "nodeid": 4, "depth": 2, "split": "air_is_zero", "split_condition": 1, "yes": 9, "no": 10, "missing": 9 , "gain": 150.348511, "cover": 1707.20422, "children": [
        { "nodeid": 9, "depth": 3, "split": "distance_to_sticks", "split_condition": -11.5, "yes": 19, "no": 20, "missing": 19 , "gain": 25.8056946, "cover": 1474.6792, "children": [
          { "nodeid": 19, "leaf": -0.00789154414 , "cover": 289.198517 }, 
          { "nodeid": 20, "leaf": -0.0162634179 , "cover": 1185.48071 }
        ]}, 
        { "nodeid": 10, "leaf": -0.0362521522 , "cover": 232.524948 }
      ]}
    ]}, 
    { "nodeid": 2, "depth": 1, "split": "distance_to_sticks", "split_condition": 12.5, "yes": 5, "no": 6, "missing": 5 , "gain": 3357.17725, "cover": 21077.9082, "children": [
      { "nodeid": 5, "depth": 2, "split": "yardline_100", "split_condition": 22.5, "yes": 11, "no": 12, "missing": 11 , "gain": 1214.04346, "cover": 16301.001, "children": [
        { "nodeid": 11, "depth": 3, "split": "ydstogo", "split_condition": 5, "yes": 23, "no": 24, "missing": 23 , "gain": 214.321045, "cover": 3358.43457, "children": [
          { "nodeid": 23, "leaf": -0.0130477715 , "cover": 1226.99475 }, 
          { "nodeid": 24, "leaf": -0.0261810627 , "cover": 2131.4397 }
        ]}, 
        { "nodeid": 12, "depth": 3, "split": "qb_hit", "split_condition": 0.5, "yes": 25, "no": 26, "missing": 25 , "gain": 772.813293, "cover": 12942.5664, "children": [
          { "nodeid": 25, "leaf": -0.00262454734 , "cover": 11806.2969 }, 
          { "nodeid": 26, "leaf": -0.0242031422 , "cover": 1136.27039 }
        ]}
      ]}, 
      { "nodeid": 6, "depth": 2, "split": "distance_to_sticks", "split_condition": 19.5, "yes": 13, "no": 14, "missing": 13 , "gain": 145.310059, "cover": 4776.90674, "children": [
        { "nodeid": 13, "depth": 3, "split": "ydstogo", "split_condition": 6, "yes": 27, "no": 28, "missing": 27 , "gain": 93.1459961, "cover": 2195.57642, "children": [
          { "nodeid": 27, "leaf": -0.0184311289 , "cover": 581.428955 }, 
          { "nodeid": 28, "leaf": -0.0301660784 , "cover": 1614.14758 }
        ]}, 
        { "nodeid": 14, "depth": 3, "split": "down3", "split_condition": 1, "yes": 29, "no": 30, "missing": 29 , "gain": 17.7768555, "cover": 2581.33008, "children": [
          { "nodeid": 29, "leaf": -0.0372022316 , "cover": 1869.76172 }, 
          { "nodeid": 30, "leaf": -0.0323009379 , "cover": 711.568298 }
        ]}
      ]}
    ]}
  ]},
  { "nodeid": 0, "depth": 0, "split": "distance_to_sticks", "split_condition": -0.5, "yes": 1, "no": 2, "missing": 1 , "gain": 10457.0146, "cover": 46518.1523, "children": [
    { "nodeid": 1, "depth": 1, "split": "air_yards", "split_condition": -0.5, "yes": 3, "no": 4, "missing": 3 , "gain": 1066.82031, "cover": 25420.4492, "children": [
      { "nodeid": 3, "depth": 2, "split": "air_yards", "split_condition": -7.5, "yes": 7, "no": 8, "missing": 7 , "gain": 163.588135, "cover": 5936.00488, "children": [
        { "nodeid": 7, "depth": 3, "split": "air_yards", "split_condition": -8.5, "yes": 15, "no": 16, "missing": 15 , "gain": 22.1434383, "cover": 129.80426, "children": [
          { "nodeid": 15, "leaf": -0.0179159846 , "cover": 64.5750198 }, 
          { "nodeid": 16, "leaf": 0.00262132729 , "cover": 65.2292328 }
        ]}, 
        { "nodeid": 8, "depth": 3, "split": "pass_middle", "split_condition": 1, "yes": 17, "no": 18, "missing": 17 , "gain": 66.611084, "cover": 5806.2002, "children": [
          { "nodeid": 17, "leaf": 0.0215317607 , "cover": 5265.31396 }, 
          { "nodeid": 18, "leaf": 0.012279585 , "cover": 540.886353 }
        ]}
      ]}, 
      { "nodeid": 4, "depth": 2, "split": "air_yards", "split_condition": 0.5, "yes": 9, "no": 10, "missing": 9 , "gain": 403.460815, "cover": 19484.4434, "children": [
        { "nodeid": 9, "depth": 3, "split": "pass_middle", "split_condition": 1, "yes": 19, "no": 20, "missing": 19 , "gain": 167.255188, "cover": 2588.31372, "children": [
          { "nodeid": 19, "leaf": 0.00157951959 , "cover": 2161.81836 }, 
          { "nodeid": 20, "leaf": -0.0155337723 , "cover": 426.49527 }
        ]}, 
        { "nodeid": 10, "depth": 3, "split": "air_yards", "split_condition": 6.5, "yes": 21, "no": 22, "missing": 21 , "gain": 419.206055, "cover": 16896.1289, "children": [
          { "nodeid": 21, "leaf": 0.0114400424 , "cover": 13192.4043 }, 
          { "nodeid": 22, "leaf": 0.00192109146 , "cover": 3703.72559 }
        ]}
      ]}
    ]}, 
    { "nodeid": 2, "depth": 1, "split": "air_yards", "split_condition": 19.5, "yes": 5, "no": 6, "missing": 5 , "gain": 3444.51025, "cover": 21097.7031, "children": [
      { "nodeid": 5, "depth": 2, "split": "pass_middle", "split_condition": 1, "yes": 11, "no": 12, "missing": 11 , "gain": 363.040649, "cover": 15452.748, "children": [
        { "nodeid": 11, "depth": 3, "split": "air_yards", "split_condition": 8.5, "yes": 23, "no": 24, "missing": 23 , "gain": 259.590088, "cover": 11128.5625, "children": [
          { "nodeid": 23, "leaf": -0.00398074184 , "cover": 3769.08521 }, 
          { "nodeid": 24, "leaf": -0.0120499386 , "cover": 7359.47705 }
        ]}, 
        { "nodeid": 12, "depth": 3, "split": "distance_to_sticks", "split_condition": 0.5, "yes": 25, "no": 26, "missing": 25 , "gain": 53.0472755, "cover": 4324.18555, "children": [
          { "nodeid": 25, "leaf": -0.00633683894 , "cover": 859.59137 }, 
          { "nodeid": 26, "leaf": 0.000598070503 , "cover": 3464.59424 }
        ]}
      ]}, 
      { "nodeid": 6, "depth": 2, "split": "air_yards", "split_condition": 23.5, "yes": 13, "no": 14, "missing": 13 , "gain": 240.330566, "cover": 5644.95459, "children": [
        { "nodeid": 13, "depth": 3, "split": "pass_middle", "split_condition": 1, "yes": 27, "no": 28, "missing": 27 , "gain": 48.392334, "cover": 1821.50659, "children": [
          { "nodeid": 27, "leaf": -0.0245471559 , "cover": 1383.84802 }, 
          { "nodeid": 28, "leaf": -0.0149412034 , "cover": 437.658508 }
        ]}, 
        { "nodeid": 14, "depth": 3, "split": "air_yards", "split_condition": 27.5, "yes": 29, "no": 30, "missing": 29 , "gain": 30.5361328, "cover": 3823.448, "children": [
          { "nodeid": 29, "leaf": -0.0296986606 , "cover": 1103.9834 }, 
          { "nodeid": 30, "leaf": -0.034768071 , "cover": 2719.4646 }
        ]}
      ]}
    ]}
  ]},
  { "nodeid": 0, "depth": 0, "split": "distance_to_sticks", "split_condition": -0.5, "yes": 1, "no": 2, "missing": 1 , "gain": 9889.35547, "cover": 46479.832, "children": [
    { "nodeid": 1, "depth": 1, "split": "qb_hit", "split_condition": 0.5, "yes": 3, "no": 4, "missing": 3 , "gain": 2295.03516, "cover": 25335.1367, "children": [
      { "nodeid": 3, "depth": 2, "split": "air_yards", "split_condition": -0.5, "yes": 7, "no": 8, "missing": 7 , "gain": 963.683594, "cover": 23615.5508, "children": [
        { "nodeid": 7, "depth": 3, "split": "air_yards", "split_condition": -7.5, "yes": 15, "no": 16, "missing": 15 , "gain": 113.448242, "cover": 5550.75537, "children": [
          { "nodeid": 15, "leaf": -0.00338033563 , "cover": 110.117439 }, 
          { "nodeid": 16, "leaf": 0.0222217385 , "cover": 5440.63818 }
        ]}, 
        { "nodeid": 8, "depth": 3, "split": "air_yards", "split_condition": 7.5, "yes": 17, "no": 18, "missing": 17 , "gain": 272.506836, "cover": 18064.7949, "children": [
          { "nodeid": 17, "leaf": 0.0109701268 , "cover": 15782.666 }, 
          { "nodeid": 18, "leaf": 0.00172692561 , "cover": 2282.12891 }
        ]}
      ]}, 
      { "nodeid": 4, "depth": 2, "split": "season", "split_condition": 2015, "yes": 9, "no": 10, "missing": 9 , "gain": 40.0670166, "cover": 1719.58667, "children": [
        { "nodeid": 9, "depth": 3, "split": "air_yards", "split_condition": -1.5, "yes": 19, "no": 20, "missing": 19 , "gain": 21.5096436, "cover": 1045.90918, "children": [
          { "nodeid": 19, "leaf": -0.0122298878 , "cover": 173.876572 }, 
          { "nodeid": 20, "leaf": -0.021982817 , "cover": 872.032593 }
        ]}, 
        { "nodeid": 10, "depth": 3, "split": "distance_to_sticks", "split_condition": -11.5, "yes": 21, "no": 22, "missing": 21 , "gain": 16.1119537, "cover": 673.67749, "children": [
          { "nodeid": 21, "leaf": -0.00444693118 , "cover": 126.927383 }, 
          { "nodeid": 22, "leaf": -0.01437712 , "cover": 546.750122 }
        ]}
      ]}
    ]}, 
    { "nodeid": 2, "depth": 1, "split": "air_yards", "split_condition": 19.5, "yes": 5, "no": 6, "missing": 5 , "gain": 3231.13525, "cover": 21144.6934, "children": [
      { "nodeid": 5, "depth": 2, "split": "yardline_100", "split_condition": 19.5, "yes": 11, "no": 12, "missing": 11 , "gain": 1285.33496, "cover": 15457.1025, "children": [
        { "nodeid": 11, "depth": 3, "split": "ydstogo", "split_condition": 6, "yes": 23, "no": 24, "missing": 23 , "gain": 190.519043, "cover": 3009.35791, "children": [
          { "nodeid": 23, "leaf": -0.0150994435 , "cover": 1526.79553 }, 
          { "nodeid": 24, "leaf": -0.0277012121 , "cover": 1482.56238 }
        ]}, 
        { "nodeid": 12, "depth": 3, "split": "qb_hit", "split_condition": 0.5, "yes": 25, "no": 26, "missing": 25 , "gain": 697.888611, "cover": 12447.7451, "children": [
          { "nodeid": 25, "leaf": -0.00128988374 , "cover": 11373.2197 }, 
          { "nodeid": 26, "leaf": -0.022359034 , "cover": 1074.52515 }
        ]}
      ]}, 
      { "nodeid": 6, "depth": 2, "split": "air_yards", "split_condition": 24.5, "yes": 13, "no": 14, "missing": 13 , "gain": 261.42334, "cover": 5687.59131, "children": [
        { "nodeid": 13, "depth": 3, "split": "yardline_100", "split_condition": 27.5, "yes": 27, "no": 28, "missing": 27 , "gain": 116.328369, "cover": 2126.71753, "children": [
          { "nodeid": 27, "leaf": -0.0335612595 , "cover": 418.569061 }, 
          { "nodeid": 28, "leaf": -0.0188226625 , "cover": 1708.14844 }
        ]}, 
        { "nodeid": 14, "depth": 3, "split": "air_yards", "split_condition": 28.5, "yes": 29, "no": 30, "missing": 29 , "gain": 24.6357422, "cover": 3560.87378, "children": [
          { "nodeid": 29, "leaf": -0.0294334274 , "cover": 1017.69171 }, 
          { "nodeid": 30, "leaf": -0.0341925472 , "cover": 2543.18213 }
        ]}
      ]}
    ]}
  ]},
  { "nodeid": 0, "depth": 0, "split": "distance_to_sticks", "split_condition": -0.5, "yes": 1, "no": 2, "missing": 1 , "gain": 9367.40527, "cover": 46553.5586, "children": [
    { "nodeid": 1, "depth": 1, "split": "air_yards", "split_condition": -0.5, "yes": 3, "no": 4, "missing": 3 , "gain": 1014.10742, "cover": 25298.2695, "children": [
      { "nodeid": 3, "depth": 2, "split": "air_yards", "split_condition": -7.5, "yes": 7, "no": 8, "missing": 7 , "gain": 161.293701, "cover": 5849.08936, "children": [
        { "nodeid": 7, "depth": 3, "split": "air_yards", "split_condition": -10.5, "yes": 15, "no": 16, "missing": 15 , "gain": 23.4425125, "cover": 136.259079, "children": [
          { "nodeid": 15, "leaf": -0.0305084791 , "cover": 21.9616394 }, 
          { "nodeid": 16, "leaf": -0.00279487367 , "cover": 114.29744 }
        ]}, 
        { "nodeid": 8, "depth": 3, "split": "pass_middle", "split_condition": 1, "yes": 17, "no": 18, "missing": 17 , "gain": 64.8415527, "cover": 5712.83008, "children": [
          { "nodeid": 17, "leaf": 0.0208797157 , "cover": 5179.55078 }, 
          { "nodeid": 18, "leaf": 0.0116872136 , "cover": 533.279724 }
        ]}
      ]}, 
      { "nodeid": 4, "depth": 2, "split": "air_yards", "split_condition": 0.5, "yes": 9, "no": 10, "missing": 9 , "gain": 378.228882, "cover": 19449.1797, "children": [
        { "nodeid": 9, "depth": 3, "split": "pass_middle", "split_condition": 1, "yes": 19, "no": 20, "missing": 19 , "gain": 172.152466, "cover": 2587.81665, "children": [
          { "nodeid": 19, "leaf": 0.00149676553 , "cover": 2156.66382 }, 
          { "nodeid": 20, "leaf": -0.015790429 , "cover": 431.15271 }
        ]}, 
        { "nodeid": 10, "depth": 3, "split": "air_yards", "split_condition": 6.5, "yes": 21, "no": 22, "missing": 21 , "gain": 395.98877, "cover": 16861.3633, "children": [
          { "nodeid": 21, "leaf": 0.0109037263 , "cover": 13171.1787 }, 
          { "nodeid": 22, "leaf": 0.0016373269 , "cover": 3690.18481 }
        ]}
      ]}
    ]}, 
    { "nodeid": 2, "depth": 1, "split": "air_yards", "split_condition": 19.5, "yes": 5, "no": 6, "missing": 5 , "gain": 3064.70801, "cover": 21255.2891, "children": [
      { "nodeid": 5, "depth": 2, "split": "pass_middle", "split_condition": 1, "yes": 11, "no": 12, "missing": 11 , "gain": 368.705444, "cover": 15552.4307, "children": [
        { "nodeid": 11, "depth": 3, "split": "air_yards", "split_condition": 13.5, "yes": 23, "no": 24, "missing": 23 , "gain": 248.113892, "cover": 11179.7383, "children": [
          { "nodeid": 23, "leaf": -0.00635454664 , "cover": 7593.73975 }, 
          { "nodeid": 24, "leaf": -0.0143346665 , "cover": 3585.99829 }
        ]}, 
        { "nodeid": 12, "depth": 3, "split": "distance_to_sticks", "split_condition": 0.5, "yes": 25, "no": 26, "missing": 25 , "gain": 34.6961327, "cover": 4372.69287, "children": [
          { "nodeid": 25, "leaf": -0.00485044671 , "cover": 860.062317 }, 
          { "nodeid": 26, "leaf": 0.00074919482 , "cover": 3512.63037 }
        ]}
      ]}, 
      { "nodeid": 6, "depth": 2, "split": "air_yards", "split_condition": 24.5, "yes": 13, "no": 14, "missing": 13 , "gain": 233.183594, "cover": 5702.85938, "children": [
        { "nodeid": 13, "depth": 3, "split": "pass_middle", "split_condition": 1, "yes": 27, "no": 28, "missing": 27 , "gain": 73.8778076, "cover": 2152.56421, "children": [
          { "nodeid": 27, "leaf": -0.0239901748 , "cover": 1646.66614 }, 
          { "nodeid": 28, "leaf": -0.0130221713 , "cover": 505.898102 }
        ]}, 
        { "nodeid": 14, "depth": 3, "split": "air_yards", "split_condition": 27.5, "yes": 29, "no": 30, "missing": 29 , "gain": 20.0087891, "cover": 3550.29517, "children": [
          { "nodeid": 29, "leaf": -0.0282692816 , "cover": 806.8974 }, 
          { "nodeid": 30, "leaf": -0.0329236649 , "cover": 2743.39771 }
        ]}
      ]}
    ]}
  ]},
  { "nodeid": 0, "depth": 0, "split": "air_yards", "split_condition": 9.5, "yes": 1, "no": 2, "missing": 1 , "gain": 8739.77246, "cover": 46549.9336, "children": [
    { "nodeid": 1, "depth": 1, "split": "qb_hit", "split_condition": 0.5, "yes": 3, "no": 4, "missing": 3 , "gain": 2574.05127, "cover": 30290.9863, "children": [
      { "nodeid": 3, "depth": 2, "split": "yardline_100", "split_condition": 9.5, "yes": 7, "no": 8, "missing": 7 , "gain": 1458.31055, "cover": 28196.2637, "children": [
        { "nodeid": 7, "depth": 3, "split": "air_yards", "split_condition": -0.5, "yes": 15, "no": 16, "missing": 15 , "gain": 303.541473, "cover": 2186.49414, "children": [
          { "nodeid": 15, "leaf": 0.0192502309 , "cover": 204.328659 }, 
          { "nodeid": 16, "leaf": -0.0126890391 , "cover": 1982.16553 }
        ]}, 
        { "nodeid": 8, "depth": 3, "split": "air_yards", "split_condition": -0.5, "yes": 17, "no": 18, "missing": 17 , "gain": 959.500977, "cover": 26009.7695, "children": [
          { "nodeid": 17, "leaf": 0.021071 , "cover": 5280.35107 }, 
          { "nodeid": 18, "leaf": 0.00913333148 , "cover": 20729.418 }
        ]}
      ]}, 
      { "nodeid": 4, "depth": 2, "split": "air_is_zero", "split_condition": 1, "yes": 9, "no": 10, "missing": 9 , "gain": 109.821533, "cover": 2094.72241, "children": [
        { "nodeid": 9, "depth": 3, "split": "yardline_100", "split_condition": 9.5, "yes": 19, "no": 20, "missing": 19 , "gain": 57.0098267, "cover": 1846.68799, "children": [
          { "nodeid": 19, "leaf": -0.0319615863 , "cover": 141.052414 }, 
          { "nodeid": 20, "leaf": -0.0154136792 , "cover": 1705.63562 }
        ]}, 
        { "nodeid": 10, "leaf": -0.0344249532 , "cover": 248.034317 }
      ]}
    ]}, 
    { "nodeid": 2, "depth": 1, "split": "air_yards", "split_condition": 19.5, "yes": 5, "no": 6, "missing": 5 , "gain": 2130.24658, "cover": 16258.9482, "children": [
      { "nodeid": 5, "depth": 2, "split": "yardline_100", "split_condition": 21.5, "yes": 11, "no": 12, "missing": 11 , "gain": 827.713867, "cover": 10486.6924, "children": [
        { "nodeid": 11, "depth": 3, "split": "air_yards", "split_condition": 13.5, "yes": 23, "no": 24, "missing": 23 , "gain": 32.012085, "cover": 1345.22668, "children": [
          { "nodeid": 23, "leaf": -0.0223710928 , "cover": 659.824646 }, 
          { "nodeid": 24, "leaf": -0.0302127432 , "cover": 685.402039 }
        ]}, 
        { "nodeid": 12, "depth": 3, "split": "qb_hit", "split_condition": 0.5, "yes": 25, "no": 26, "missing": 25 , "gain": 435.263672, "cover": 9141.46582, "children": [
          { "nodeid": 25, "leaf": -0.00362957432 , "cover": 8282.31445 }, 
          { "nodeid": 26, "leaf": -0.022315098 , "cover": 859.151367 }
        ]}
      ]}, 
      { "nodeid": 6, "depth": 2, "split": "air_yards", "split_condition": 24.5, "yes": 13, "no": 14, "missing": 13 , "gain": 207.416016, "cover": 5772.25537, "children": [
        { "nodeid": 13, "depth": 3, "split": "yardline_100", "split_condition": 24.5, "yes": 27, "no": 28, "missing": 27 , "gain": 121.832886, "cover": 2175.31787, "children": [
          { "nodeid": 27, "leaf": -0.034359958 , "cover": 351.713867 }, 
          { "nodeid": 28, "leaf": -0.0182636287 , "cover": 1823.60413 }
        ]}, 
        { "nodeid": 14, "depth": 3, "split": "qb_hit", "split_condition": 0.5, "yes": 29, "no": 30, "missing": 29 , "gain": 20.4921875, "cover": 3596.9375, "children": [
          { "nodeid": 29, "leaf": -0.0300025772 , "cover": 3215.03247 }, 
          { "nodeid": 30, "leaf": -0.0363415144 , "cover": 381.904877 }
        ]}
      ]}
    ]}
  ]},
  { "nodeid": 0, "depth": 0, "split": "distance_to_sticks", "split_condition": -0.5, "yes": 1, "no": 2, "missing": 1 , "gain": 8622.45117, "cover": 46447.4414, "children": [
    { "nodeid": 1, "depth": 1, "split": "qb_hit", "split_condition": 0.5, "yes": 3, "no": 4, "missing": 3 , "gain": 2092.52002, "cover": 25082.5664, "children": [
      { "nodeid": 3, "depth": 2, "split": "distance_to_sticks", "split_condition": -10.5, "yes": 7, "no": 8, "missing": 7 , "gain": 553.59375, "cover": 23353.8457, "children": [
        { "nodeid": 7, "depth": 3, "split": "air_is_zero", "split_condition": 1, "yes": 15, "no": 16, "missing": 15 , "gain": 93.8833008, "cover": 5647.90283, "children": [
          { "nodeid": 15, "leaf": 0.0195645336 , "cover": 5319.08252 }, 
          { "nodeid": 16, "leaf": 0.00577798625 , "cover": 328.820679 }
        ]}, 
        { "nodeid": 8, "depth": 3, "split": "distance_to_sticks", "split_condition": -3.5, "yes": 17, "no": 18, "missing": 17 , "gain": 240.643799, "cover": 17705.9434, "children": [
          { "nodeid": 17, "leaf": 0.0116677834 , "cover": 12445.3203 }, 
          { "nodeid": 18, "leaf": 0.00528854504 , "cover": 5260.62256 }
        ]}
      ]}, 
      { "nodeid": 4, "depth": 2, "split": "air_is_zero", "split_condition": 1, "yes": 9, "no": 10, "missing": 9 , "gain": 121.359619, "cover": 1728.72107, "children": [
        { "nodeid": 9, "depth": 3, "split": "season", "split_condition": 2010, "yes": 19, "no": 20, "missing": 19 , "gain": 38.409729, "cover": 1488.57629, "children": [
          { "nodeid": 19, "leaf": -0.0211219415 , "cover": 350.091125 }, 
          { "nodeid": 20, "leaf": -0.0116266934 , "cover": 1138.48511 }
        ]}, 
        { "nodeid": 10, "leaf": -0.0330240093 , "cover": 240.14473 }
      ]}
    ]}, 
    { "nodeid": 2, "depth": 1, "split": "distance_to_sticks", "split_condition": 12.5, "yes": 5, "no": 6, "missing": 5 , "gain": 2480.17041, "cover": 21364.875, "children": [
      { "nodeid": 5, "depth": 2, "split": "yardline_100", "split_condition": 22.5, "yes": 11, "no": 12, "missing": 11 , "gain": 1058.99377, "cover": 16433.6289, "children": [
        { "nodeid": 11, "depth": 3, "split": "ydstogo", "split_condition": 5, "yes": 23, "no": 24, "missing": 23 , "gain": 203.922852, "cover": 3431.86401, "children": [
          { "nodeid": 23, "leaf": -0.0111842752 , "cover": 1237.61377 }, 
          { "nodeid": 24, "leaf": -0.0238896944 , "cover": 2194.25024 }
        ]}, 
        { "nodeid": 12, "depth": 3, "split": "qb_hit", "split_condition": 0.5, "yes": 25, "no": 26, "missing": 25 , "gain": 667.220032, "cover": 13001.7656, "children": [
          { "nodeid": 25, "leaf": -0.00194335624 , "cover": 11860.8291 }, 
          { "nodeid": 26, "leaf": -0.0219520871 , "cover": 1140.93591 }
        ]}
      ]}, 
      { "nodeid": 6, "depth": 2, "split": "distance_to_sticks", "split_condition": 19.5, "yes": 13, "no": 14, "missing": 13 , "gain": 81.5668945, "cover": 4931.24658, "children": [
        { "nodeid": 13, "depth": 3, "split": "yardline_100", "split_condition": 29.5, "yes": 27, "no": 28, "missing": 27 , "gain": 62.9786377, "cover": 2269.02295, "children": [
          { "nodeid": 27, "leaf": -0.0317790806 , "cover": 476.523468 }, 
          { "nodeid": 28, "leaf": -0.0214902572 , "cover": 1792.49951 }
        ]}, 
        { "nodeid": 14, "depth": 3, "split": "down3", "split_condition": 1, "yes": 29, "no": 30, "missing": 29 , "gain": 13.1340332, "cover": 2662.22363, "children": [
          { "nodeid": 29, "leaf": -0.0313016772 , "cover": 1918.22449 }, 
          { "nodeid": 30, "leaf": -0.0271798074 , "cover": 743.999084 }
        ]}
      ]}
    ]}
  ]},
  { "nodeid": 0, "depth": 0, "split": "distance_to_sticks", "split_condition": -0.5, "yes": 1, "no": 2, "missing": 1 , "gain": 8115.7002, "cover": 46490.2461, "children": [
    { "nodeid": 1, "depth": 1, "split": "distance_to_sticks", "split_condition": -10.5, "yes": 3, "no": 4, "missing": 3 , "gain": 549.175781, "cover": 25070.8262, "children": [
      { "nodeid": 3, "depth": 2, "split": "pass_middle", "split_condition": 1, "yes": 7, "no": 8, "missing": 7 , "gain": 61.3588867, "cover": 5990.1582, "children": [
        { "nodeid": 7, "depth": 3, "split": "season", "split_condition": 2013, "yes": 15, "no": 16, "missing": 15 , "gain": 32.2524414, "cover": 5111.3291, "children": [
          { "nodeid": 15, "leaf": 0.0150624886 , "cover": 2243.76074 }, 
          { "nodeid": 16, "leaf": 0.0190930571 , "cover": 2867.56836 }
        ]}, 
        { "nodeid": 8, "depth": 3, "split": "ydstogo", "split_condition": 9, "yes": 17, "no": 18, "missing": 17 , "gain": 21.6595001, "cover": 878.829468, "children": [
          { "nodeid": 17, "leaf": -0.00931620318 , "cover": 33.6061554 }, 
          { "nodeid": 18, "leaf": 0.0109390169 , "cover": 845.223328 }
        ]}
      ]}, 
      { "nodeid": 4, "depth": 2, "split": "distance_to_sticks", "split_condition": -3.5, "yes": 9, "no": 10, "missing": 9 , "gain": 216.704834, "cover": 19080.668, "children": [
        { "nodeid": 9, "depth": 3, "split": "distance_to_sticks", "split_condition": -9.5, "yes": 19, "no": 20, "missing": 19 , "gain": 84.0930176, "cover": 13384.5781, "children": [
          { "nodeid": 19, "leaf": 0.00428103609 , "cover": 1784.17261 }, 
          { "nodeid": 20, "leaf": 0.0101144025 , "cover": 11600.4053 }
        ]}, 
        { "nodeid": 10, "depth": 3, "split": "ydstogo", "split_condition": 12, "yes": 21, "no": 22, "missing": 21 , "gain": 75.2411499, "cover": 5696.09082, "children": [
          { "nodeid": 21, "leaf": 0.00426043337 , "cover": 5336.50342 }, 
          { "nodeid": 22, "leaf": -0.00754046068 , "cover": 359.587616 }
        ]}
      ]}
    ]}, 
    { "nodeid": 2, "depth": 1, "split": "distance_to_sticks", "split_condition": 12.5, "yes": 5, "no": 6, "missing": 5 , "gain": 2302.79736, "cover": 21419.418, "children": [
      { "nodeid": 5, "depth": 2, "split": "yardline_100", "split_condition": 22.5, "yes": 11, "no": 12, "missing": 11 , "gain": 987.050293, "cover": 16458.707, "children": [
        { "nodeid": 11, "depth": 3, "split": "ydstogo", "split_condition": 5, "yes": 23, "no": 24, "missing": 23 , "gain": 176.932861, "cover": 3441.3855, "children": [
          { "nodeid": 23, "leaf": -0.011155122 , "cover": 1247.56799 }, 
          { "nodeid": 24, "leaf": -0.0229614861 , "cover": 2193.81738 }
        ]}, 
        { "nodeid": 12, "depth": 3, "split": "ydstogo", "split_condition": 6, "yes": 25, "no": 26, "missing": 25 , "gain": 334.145355, "cover": 13017.3213, "children": [
          { "nodeid": 25, "leaf": 0.00254739285 , "cover": 3850.5188 }, 
          { "nodeid": 26, "leaf": -0.00622800877 , "cover": 9166.80176 }
        ]}
      ]}, 
      { "nodeid": 6, "depth": 2, "split": "distance_to_sticks", "split_condition": 19.5, "yes": 13, "no": 14, "missing": 13 , "gain": 89.2714844, "cover": 4960.71143, "children": [
        { "nodeid": 13, "depth": 3, "split": "ydstogo", "split_condition": 7, "yes": 27, "no": 28, "missing": 27 , "gain": 75.9262695, "cover": 2275.79761, "children": [
          { "nodeid": 27, "leaf": -0.0159424916 , "cover": 742.856201 }, 
          { "nodeid": 28, "leaf": -0.0257273968 , "cover": 1532.94128 }
        ]}, 
        { "nodeid": 14, "depth": 3, "split": "down3", "split_condition": 1, "yes": 29, "no": 30, "missing": 29 , "gain": 11.1342773, "cover": 2684.91406, "children": [
          { "nodeid": 29, "leaf": -0.0303507205 , "cover": 1948.03503 }, 
          { "nodeid": 30, "leaf": -0.0265289545 , "cover": 736.879089 }
        ]}
      ]}
    ]}
  ]},
  { "nodeid": 0, "depth": 0, "split": "distance_to_sticks", "split_condition": -0.5, "yes": 1, "no": 2, "missing": 1 , "gain": 7680.75, "cover": 46302.0391, "children": [
    { "nodeid": 1, "depth": 1, "split": "qb_hit", "split_condition": 0.5, "yes": 3, "no": 4, "missing": 3 , "gain": 1998.15454, "cover": 24973.3125, "children": [
      { "nodeid": 3, "depth": 2, "split": "air_yards", "split_condition": -0.5, "yes": 7, "no": 8, "missing": 7 , "gain": 812.855469, "cover": 23229.248, "children": [
        { "nodeid": 7, "depth": 3, "split": "air_yards", "split_condition": -7.5, "yes": 15, "no": 16, "missing": 15 , "gain": 102.864014, "cover": 5356.52832, "children": [
          { "nodeid": 15, "leaf": -0.00388918049 , "cover": 111.031448 }, 
          { "nodeid": 16, "leaf": 0.0203949399 , "cover": 5245.49707 }
        ]}, 
        { "nodeid": 8, "depth": 3, "split": "air_yards", "split_condition": 7.5, "yes": 17, "no": 18, "missing": 17 , "gain": 234.27002, "cover": 17872.7188, "children": [
          { "nodeid": 17, "leaf": 0.00987726916 , "cover": 15610.4922 }, 
          { "nodeid": 18, "leaf": 0.00126840034 , "cover": 2262.22681 }
        ]}
      ]}, 
      { "nodeid": 4, "depth": 2, "split": "season", "split_condition": 2011, "yes": 9, "no": 10, "missing": 9 , "gain": 43.4221802, "cover": 1744.06604, "children": [
        { "nodeid": 9, "depth": 3, "split": "air_yards", "split_condition": -0.5, "yes": 19, "no": 20, "missing": 19 , "gain": 14.5251465, "cover": 553.588928, "children": [
          { "nodeid": 19, "leaf": -0.013509077 , "cover": 103.179993 }, 
          { "nodeid": 20, "leaf": -0.0241418704 , "cover": 450.408936 }
        ]}, 
        { "nodeid": 10, "depth": 3, "split": "air_yards", "split_condition": -0.5, "yes": 21, "no": 22, "missing": 21 , "gain": 14.5769043, "cover": 1190.47717, "children": [
          { "nodeid": 21, "leaf": -0.00832562055 , "cover": 254.980103 }, 
          { "nodeid": 22, "leaf": -0.015126287 , "cover": 935.497009 }
        ]}
      ]}
    ]}, 
    { "nodeid": 2, "depth": 1, "split": "air_yards", "split_condition": 19.5, "yes": 5, "no": 6, "missing": 5 , "gain": 2460.10059, "cover": 21328.7246, "children": [
      { "nodeid": 5, "depth": 2, "split": "yardline_100", "split_condition": 19.5, "yes": 11, "no": 12, "missing": 11 , "gain": 1000.00494, "cover": 15507.2842, "children": [
        { "nodeid": 11, "depth": 3, "split": "ydstogo", "split_condition": 6, "yes": 23, "no": 24, "missing": 23 , "gain": 144.629272, "cover": 3044.4895, "children": [
          { "nodeid": 23, "leaf": -0.013237223 , "cover": 1534.93567 }, 
          { "nodeid": 24, "leaf": -0.0241528247 , "cover": 1509.55383 }
        ]}, 
        { "nodeid": 12, "depth": 3, "split": "qb_hit", "split_condition": 0.5, "yes": 25, "no": 26, "missing": 25 , "gain": 587.983826, "cover": 12462.7939, "children": [
          { "nodeid": 25, "leaf": -0.000989599386 , "cover": 11368.6377 }, 
          { "nodeid": 26, "leaf": -0.0201700162 , "cover": 1094.15674 }
        ]}
      ]}, 
      { "nodeid": 6, "depth": 2, "split": "air_yards", "split_condition": 24.5, "yes": 13, "no": 14, "missing": 13 , "gain": 171.609863, "cover": 5821.44043, "children": [
        { "nodeid": 13, "depth": 3, "split": "yardline_100", "split_condition": 31.5, "yes": 27, "no": 28, "missing": 27 , "gain": 82.8773193, "cover": 2172.23535, "children": [
          { "nodeid": 27, "leaf": -0.0280310996 , "cover": 517.840576 }, 
          { "nodeid": 28, "leaf": -0.0165390577 , "cover": 1654.39478 }
        ]}, 
        { "nodeid": 14, "depth": 3, "split": "qb_hit", "split_condition": 0.5, "yes": 29, "no": 30, "missing": 29 , "gain": 19.2856445, "cover": 3649.20508, "children": [
          { "nodeid": 29, "leaf": -0.0275304914 , "cover": 3257.72925 }, 
          { "nodeid": 30, "leaf": -0.0335867517 , "cover": 391.475891 }
        ]}
      ]}
    ]}
  ]},
  { "nodeid": 0, "depth": 0, "split": "distance_to_sticks", "split_condition": -0.5, "yes": 1, "no": 2, "missing": 1 , "gain": 7279.9873, "cover": 46493.1992, "children": [
    { "nodeid": 1, "depth": 1, "split": "qb_hit", "split_condition": 0.5, "yes": 3, "no": 4, "missing": 3 , "gain": 2025.91968, "cover": 24973.3301, "children": [
      { "nodeid": 3, "depth": 2, "split": "distance_to_sticks", "split_condition": -10.5, "yes": 7, "no": 8, "missing": 7 , "gain": 501.947266, "cover": 23212.9902, "children": [
        { "nodeid": 7, "depth": 3, "split": "air_is_zero", "split_condition": 1, "yes": 15, "no": 16, "missing": 15 , "gain": 113.282471, "cover": 5567.48193, "children": [
          { "nodeid": 15, "leaf": 0.0186445173 , "cover": 5234.37695 }, 
          { "nodeid": 16, "leaf": 0.00359660201 , "cover": 333.104828 }
        ]}, 
        { "nodeid": 8, "depth": 3, "split": "air_is_zero", "split_condition": 1, "yes": 17, "no": 18, "missing": 17 , "gain": 232.625488, "cover": 17645.5098, "children": [
          { "nodeid": 17, "leaf": 0.0101612192 , "cover": 15642.8789 }, 
          { "nodeid": 18, "leaf": 0.0011111045 , "cover": 2002.62988 }
        ]}
      ]}, 
      { "nodeid": 4, "depth": 2, "split": "air_is_zero", "split_condition": 1, "yes": 9, "no": 10, "missing": 9 , "gain": 97.8635254, "cover": 1760.33899, "children": [
        { "nodeid": 9, "depth": 3, "split": "era2", "split_condition": 1, "yes": 19, "no": 20, "missing": 19 , "gain": 31.2071533, "cover": 1506.9353, "children": [
          { "nodeid": 19, "leaf": -0.01037193 , "cover": 716.488464 }, 
          { "nodeid": 20, "leaf": -0.0176080987 , "cover": 790.446899 }
        ]}, 
        { "nodeid": 10, "leaf": -0.0309771281 , "cover": 253.403625 }
      ]}
    ]}, 
    { "nodeid": 2, "depth": 1, "split": "distance_to_sticks", "split_condition": 12.5, "yes": 5, "no": 6, "missing": 5 , "gain": 2039.34863, "cover": 21519.8691, "children": [
      { "nodeid": 5, "depth": 2, "split": "yardline_100", "split_condition": 24.5, "yes": 11, "no": 12, "missing": 11 , "gain": 895.992188, "cover": 16522.75, "children": [
        { "nodeid": 11, "depth": 3, "split": "ydstogo", "split_condition": 6, "yes": 23, "no": 24, "missing": 23 , "gain": 181.935303, "cover": 3718.7356, "children": [
          { "nodeid": 23, "leaf": -0.0110496497 , "cover": 1675.04236 }, 
          { "nodeid": 24, "leaf": -0.0221751165 , "cover": 2043.69336 }
        ]}, 
        { "nodeid": 12, "depth": 3, "split": "qb_hit", "split_condition": 0.5, "yes": 25, "no": 26, "missing": 25 , "gain": 558.779663, "cover": 12804.0146, "children": [
          { "nodeid": 25, "leaf": -0.00158805866 , "cover": 11654.2754 }, 
          { "nodeid": 26, "leaf": -0.019849034 , "cover": 1149.73987 }
        ]}
      ]}, 
      { "nodeid": 6, "depth": 2, "split": "distance_to_sticks", "split_condition": 19.5, "yes": 13, "no": 14, "missing": 13 , "gain": 80.8339844, "cover": 4997.11914, "children": [
        { "nodeid": 13, "depth": 3, "split": "ydstogo", "split_condition": 8, "yes": 27, "no": 28, "missing": 27 , "gain": 64.7529297, "cover": 2289.65894, "children": [
          { "nodeid": 27, "leaf": -0.0158892926 , "cover": 907.798462 }, 
          { "nodeid": 28, "leaf": -0.0245270114 , "cover": 1381.86047 }
        ]}, 
        { "nodeid": 14, "depth": 3, "split": "distance_to_sticks", "split_condition": 34.5, "yes": 29, "no": 30, "missing": 29 , "gain": 10.300293, "cover": 2707.46021, "children": [
          { "nodeid": 29, "leaf": -0.0267111864 , "cover": 2173.9873 }, 
          { "nodeid": 30, "leaf": -0.0308063813 , "cover": 533.472839 }
        ]}
      ]}
    ]}
  ]},
  { "nodeid": 0, "depth": 0, "split": "distance_to_sticks", "split_condition": -0.5, "yes": 1, "no": 2, "missing": 1 , "gain": 7064.18164, "cover": 46416.3867, "children": [
    { "nodeid": 1, "depth": 1, "split": "qb_hit", "split_condition": 0.5, "yes": 3, "no": 4, "missing": 3 , "gain": 1769.73779, "cover": 24939.9766, "children": [
      { "nodeid": 3, "depth": 2, "split": "distance_to_sticks", "split_condition": -10.5, "yes": 7, "no": 8, "missing": 7 , "gain": 504.381348, "cover": 23177.9961, "children": [
        { "nodeid": 7, "depth": 3, "split": "air_is_zero", "split_condition": 1, "yes": 15, "no": 16, "missing": 15 , "gain": 109.305664, "cover": 5548.90332, "children": [
          { "nodeid": 15, "leaf": 0.0184832141 , "cover": 5218.42627 }, 
          { "nodeid": 16, "leaf": 0.00364479981 , "cover": 330.476776 }
        ]}, 
        { "nodeid": 8, "depth": 3, "split": "air_is_zero", "split_condition": 1, "yes": 17, "no": 18, "missing": 17 , "gain": 230.235107, "cover": 17629.0938, "children": [
          { "nodeid": 17, "leaf": 0.00997265708 , "cover": 15650.2168 }, 
          { "nodeid": 18, "leaf": 0.000921721396 , "cover": 1978.87659 }
        ]}
      ]}, 
      { "nodeid": 4, "depth": 2, "split": "air_is_zero", "split_condition": 1, "yes": 9, "no": 10, "missing": 9 , "gain": 105.302673, "cover": 1761.98035, "children": [
        { "nodeid": 9, "depth": 3, "split": "season", "split_condition": 2015, "yes": 19, "no": 20, "missing": 19 , "gain": 33.4767761, "cover": 1514.85339, "children": [
          { "nodeid": 19, "leaf": -0.0155107826 , "cover": 908.624268 }, 
          { "nodeid": 20, "leaf": -0.00790254492 , "cover": 606.229065 }
        ]}, 
        { "nodeid": 10, "depth": 3, "split": "season", "split_condition": 2012, "yes": 21, "no": 22, "missing": 21 , "gain": 5.32885742, "cover": 247.127045, "children": [
          { "nodeid": 21, "leaf": -0.034039475 , "cover": 124.56002 }, 
          { "nodeid": 22, "leaf": -0.02579684 , "cover": 122.567024 }
        ]}
      ]}
    ]}, 
    { "nodeid": 2, "depth": 1, "split": "distance_to_sticks", "split_condition": 11.5, "yes": 5, "no": 6, "missing": 5 , "gain": 1884.26074, "cover": 21476.4082, "children": [
      { "nodeid": 5, "depth": 2, "split": "yardline_100", "split_condition": 22.5, "yes": 11, "no": 12, "missing": 11 , "gain": 835.126038, "cover": 16037.626, "children": [
        { "nodeid": 11, "depth": 3, "split": "ydstogo", "split_condition": 6, "yes": 23, "no": 24, "missing": 23 , "gain": 159.230347, "cover": 3430.74023, "children": [
          { "nodeid": 23, "leaf": -0.0112299053 , "cover": 1603.54639 }, 
          { "nodeid": 24, "leaf": -0.0220371466 , "cover": 1827.19397 }
        ]}, 
        { "nodeid": 12, "depth": 3, "split": "qb_hit", "split_condition": 0.5, "yes": 25, "no": 26, "missing": 25 , "gain": 543.245972, "cover": 12606.8857, "children": [
          { "nodeid": 25, "leaf": -0.00146362733 , "cover": 11493.3018 }, 
          { "nodeid": 26, "leaf": -0.0197439995 , "cover": 1113.58374 }
        ]}
      ]}, 
      { "nodeid": 6, "depth": 2, "split": "distance_to_sticks", "split_condition": 19.5, "yes": 13, "no": 14, "missing": 13 , "gain": 113.138672, "cover": 5438.7832, "children": [
        { "nodeid": 13, "depth": 3, "split": "yardline_100", "split_condition": 34.5, "yes": 27, "no": 28, "missing": 27 , "gain": 72.4697266, "cover": 2752.36084, "children": [
          { "nodeid": 27, "leaf": -0.0260940194 , "cover": 759.061096 }, 
          { "nodeid": 28, "leaf": -0.0169838816 , "cover": 1993.29968 }
        ]}, 
        { "nodeid": 14, "depth": 3, "split": "ydstogo", "split_condition": 7, "yes": 29, "no": 30, "missing": 29 , "gain": 10.7316895, "cover": 2686.42212, "children": [
          { "nodeid": 29, "leaf": -0.0240184925 , "cover": 731.852295 }, 
          { "nodeid": 30, "leaf": -0.0277499016 , "cover": 1954.56995 }
        ]}
      ]}
    ]}
  ]},
  { "nodeid": 0, "depth": 0, "split": "air_yards", "split_condition": 9.5, "yes": 1, "no": 2, "missing": 1 , "gain": 6809.41455, "cover": 46421.1211, "children": [
    { "nodeid": 1, "depth": 1, "split": "qb_hit", "split_condition": 0.5, "yes": 3, "no": 4, "missing": 3 , "gain": 1975.87622, "cover": 29967.1914, "children": [
      { "nodeid": 3, "depth": 2, "split": "distance_to_sticks", "split_condition": -3.5, "yes": 7, "no": 8, "missing": 7 , "gain": 1173.29688, "cover": 27856.1055, "children": [
        { "nodeid": 7, "depth": 3, "split": "air_is_zero", "split_condition": 1, "yes": 15, "no": 16, "missing": 15 , "gain": 482.000977, "cover": 17488.9219, "children": [
          { "nodeid": 15, "leaf": 0.0144305071 , "cover": 15417.9326 }, 
          { "nodeid": 16, "leaf": 0.00158446131 , "cover": 2070.98999 }
        ]}, 
        { "nodeid": 8, "depth": 3, "split": "yardline_100", "split_condition": 9.5, "yes": 17, "no": 18, "missing": 17 , "gain": 783.344177, "cover": 10367.1826, "children": [
          { "nodeid": 17, "leaf": -0.0126005439 , "cover": 1818.46387 }, 
          { "nodeid": 18, "leaf": 0.00546467677 , "cover": 8548.71875 }
        ]}
      ]}, 
      { "nodeid": 4, "depth": 2, "split": "air_is_zero", "split_condition": 1, "yes": 9, "no": 10, "missing": 9 , "gain": 81.6577148, "cover": 2111.08643, "children": [
        { "nodeid": 9, "depth": 3, "split": "yardline_100", "split_condition": 12.5, "yes": 19, "no": 20, "missing": 19 , "gain": 72.4812012, "cover": 1860.76489, "children": [
          { "nodeid": 19, "leaf": -0.0294733979 , "cover": 177.604355 }, 
          { "nodeid": 20, "leaf": -0.0126864379 , "cover": 1683.16052 }
        ]}, 
        { "nodeid": 10, "leaf": -0.0295239445 , "cover": 250.321594 }
      ]}
    ]}, 
    { "nodeid": 2, "depth": 1, "split": "air_yards", "split_condition": 19.5, "yes": 5, "no": 6, "missing": 5 , "gain": 1582.31152, "cover": 16453.9297, "children": [
      { "nodeid": 5, "depth": 2, "split": "yardline_100", "split_condition": 24.5, "yes": 11, "no": 12, "missing": 11 , "gain": 607.992371, "cover": 10518.6504, "children": [
        { "nodeid": 11, "depth": 3, "split": "yardline_100", "split_condition": 19.5, "yes": 23, "no": 24, "missing": 23 , "gain": 44.1489258, "cover": 1592.44714, "children": [
          { "nodeid": 23, "leaf": -0.0235598907 , "cover": 1212.87537 }, 
          { "nodeid": 24, "leaf": -0.0137217147 , "cover": 379.571716 }
        ]}, 
        { "nodeid": 12, "depth": 3, "split": "qb_hit", "split_condition": 0.5, "yes": 25, "no": 26, "missing": 25 , "gain": 325.496887, "cover": 8926.20312, "children": [
          { "nodeid": 25, "leaf": -0.00289883697 , "cover": 8065.4165 }, 
          { "nodeid": 26, "leaf": -0.0190638639 , "cover": 860.786987 }
        ]}
      ]}, 
      { "nodeid": 6, "depth": 2, "split": "air_yards", "split_condition": 24.5, "yes": 13, "no": 14, "missing": 13 , "gain": 160.333008, "cover": 5935.27979, "children": [
        { "nodeid": 13, "depth": 3, "split": "yardline_100", "split_condition": 27.5, "yes": 27, "no": 28, "missing": 27 , "gain": 79.3421631, "cover": 2219.76733, "children": [
          { "nodeid": 27, "leaf": -0.0274151266 , "cover": 433.538788 }, 
          { "nodeid": 28, "leaf": -0.0154664144 , "cover": 1786.22839 }
        ]}, 
        { "nodeid": 14, "depth": 3, "split": "qb_hit", "split_condition": 0.5, "yes": 29, "no": 30, "missing": 29 , "gain": 24.5087891, "cover": 3715.5127, "children": [
          { "nodeid": 29, "leaf": -0.0255937111 , "cover": 3313.54883 }, 
          { "nodeid": 30, "leaf": -0.0322692655 , "cover": 401.963989 }
        ]}
      ]}
    ]}
  ]},
  { "nodeid": 0, "depth": 0, "split": "air_yards", "split_condition": 9.5, "yes": 1, "no": 2, "missing": 1 , "gain": 6458.7124, "cover": 46290.1523, "children": [
    { "nodeid": 1, "depth": 1, "split": "qb_hit", "split_condition": 0.5, "yes": 3, "no": 4, "missing": 3 , "gain": 1854.43335, "cover": 29814.9023, "children": [
      { "nodeid": 3, "depth": 2, "split": "distance_to_sticks", "split_condition": -2.5, "yes": 7, "no": 8, "missing": 7 , "gain": 1137.68457, "cover": 27698.9258, "children": [
        { "nodeid": 7, "depth": 3, "split": "air_yards", "split_condition": -0.5, "yes": 15, "no": 16, "missing": 15 , "gain": 501.576172, "cover": 18959.3555, "children": [
          { "nodeid": 15, "leaf": 0.0186571199 , "cover": 5230.81494 }, 
          { "nodeid": 16, "leaf": 0.00955819804 , "cover": 13728.541 }
        ]}, 
        { "nodeid": 8, "depth": 3, "split": "distance_to_sticks", "split_condition": -0.5, "yes": 17, "no": 18, "missing": 17 , "gain": 83.8815308, "cover": 8739.57031, "children": [
          { "nodeid": 17, "leaf": 0.00430680439 , "cover": 3305.14941 }, 
          { "nodeid": 18, "leaf": -0.000743246113 , "cover": 5434.4209 }
        ]}
      ]}, 
      { "nodeid": 4, "depth": 2, "split": "air_is_zero", "split_condition": 1, "yes": 9, "no": 10, "missing": 9 , "gain": 73.4243164, "cover": 2115.97534, "children": [
        { "nodeid": 9, "depth": 3, "split": "season", "split_condition": 2013, "yes": 19, "no": 20, "missing": 19 , "gain": 41.4423828, "cover": 1864.74451, "children": [
          { "nodeid": 19, "leaf": -0.0180488452 , "cover": 839.204834 }, 
          { "nodeid": 20, "leaf": -0.0105336113 , "cover": 1025.53967 }
        ]}, 
        { "nodeid": 10, "depth": 3, "split": "season", "split_condition": 2018, "yes": 21, "no": 22, "missing": 21 , "gain": 5.00344849, "cover": 251.230896, "children": [
          { "nodeid": 21, "leaf": -0.0298593547 , "cover": 214.874649 }, 
          { "nodeid": 22, "leaf": -0.0187550094 , "cover": 36.3562508 }
        ]}
      ]}
    ]}, 
    { "nodeid": 2, "depth": 1, "split": "air_yards", "split_condition": 19.5, "yes": 5, "no": 6, "missing": 5 , "gain": 1469.18164, "cover": 16475.25, "children": [
      { "nodeid": 5, "depth": 2, "split": "qb_hit", "split_condition": 0.5, "yes": 11, "no": 12, "missing": 11 , "gain": 320.221619, "cover": 10535.5146, "children": [
        { "nodeid": 11, "depth": 3, "split": "air_yards", "split_condition": 14.5, "yes": 23, "no": 24, "missing": 23 , "gain": 85.3688965, "cover": 9533.76172, "children": [
          { "nodeid": 23, "leaf": -0.00359691796 , "cover": 5609.72266 }, 
          { "nodeid": 24, "leaf": -0.00840489846 , "cover": 3924.03955 }
        ]}, 
        { "nodeid": 12, "depth": 3, "split": "down1", "split_condition": 1, "yes": 25, "no": 26, "missing": 25 , "gain": 13.5256958, "cover": 1001.7522, "children": [
          { "nodeid": 25, "leaf": -0.0224329066 , "cover": 685.049255 }, 
          { "nodeid": 26, "leaf": -0.0160414502 , "cover": 316.702972 }
        ]}
      ]}, 
      { "nodeid": 6, "depth": 2, "split": "air_yards", "split_condition": 24.5, "yes": 13, "no": 14, "missing": 13 , "gain": 113.220703, "cover": 5939.73633, "children": [
        { "nodeid": 13, "depth": 3, "split": "qb_hit", "split_condition": 0.5, "yes": 27, "no": 28, "missing": 27 , "gain": 27.2808838, "cover": 2219.63184, "children": [
          { "nodeid": 27, "leaf": -0.0171200838 , "cover": 2002.02747 }, 
          { "nodeid": 28, "leaf": -0.0265095569 , "cover": 217.604279 }
        ]}, 
        { "nodeid": 14, "depth": 3, "split": "air_yards", "split_condition": 38.5, "yes": 29, "no": 30, "missing": 29 , "gain": 18.5996094, "cover": 3720.10449, "children": [
          { "nodeid": 29, "leaf": -0.0240730997 , "cover": 2679.95459 }, 
          { "nodeid": 30, "leaf": -0.0281164348 , "cover": 1040.1499 }
        ]}
      ]}
    ]}
  ]},
  { "nodeid": 0, "depth": 0, "split": "air_yards", "split_condition": 9.5, "yes": 1, "no": 2, "missing": 1 , "gain": 6155.58496, "cover": 46339.0781, "children": [
    { "nodeid": 1, "depth": 1, "split": "yardline_100", "split_condition": 9.5, "yes": 3, "no": 4, "missing": 3 , "gain": 1122.87476, "cover": 29805.4434, "children": [
      { "nodeid": 3, "depth": 2, "split": "air_yards", "split_condition": -0.5, "yes": 7, "no": 8, "missing": 7 , "gain": 244.796387, "cover": 2378.29077, "children": [
        { "nodeid": 7, "leaf": 0.0165541638 , "cover": 202.188263 }, 
        { "nodeid": 8, "depth": 3, "split": "air_yards", "split_condition": 2.5, "yes": 17, "no": 18, "missing": 17 , "gain": 105.27655, "cover": 2176.10254, "children": [
          { "nodeid": 17, "leaf": -0.00429187203 , "cover": 716.61731 }, 
          { "nodeid": 18, "leaf": -0.0159986168 , "cover": 1459.48511 }
        ]}
      ]}, 
      { "nodeid": 4, "depth": 2, "split": "air_yards", "split_condition": -0.5, "yes": 9, "no": 10, "missing": 9 , "gain": 793.274902, "cover": 27427.1543, "children": [
        { "nodeid": 9, "depth": 3, "split": "air_yards", "split_condition": -7.5, "yes": 19, "no": 20, "missing": 19 , "gain": 136.715088, "cover": 5416.24951, "children": [
          { "nodeid": 19, "leaf": -0.00865887385 , "cover": 128.406342 }, 
          { "nodeid": 20, "leaf": 0.0173926558 , "cover": 5287.84326 }
        ]}, 
        { "nodeid": 10, "depth": 3, "split": "air_yards", "split_condition": 0.5, "yes": 21, "no": 22, "missing": 21 , "gain": 262.600342, "cover": 22010.9043, "children": [
          { "nodeid": 21, "leaf": -0.00163972529 , "cover": 2439.80127 }, 
          { "nodeid": 22, "leaf": 0.00705769612 , "cover": 19571.1035 }
        ]}
      ]}
    ]}, 
    { "nodeid": 2, "depth": 1, "split": "air_yards", "split_condition": 19.5, "yes": 5, "no": 6, "missing": 5 , "gain": 1369.92041, "cover": 16533.6348, "children": [
      { "nodeid": 5, "depth": 2, "split": "yardline_100", "split_condition": 21.5, "yes": 11, "no": 12, "missing": 11 , "gain": 583.299683, "cover": 10567.6689, "children": [
        { "nodeid": 11, "depth": 3, "split": "pass_middle", "split_condition": 1, "yes": 23, "no": 24, "missing": 23 , "gain": 52.4547119, "cover": 1397.67358, "children": [
          { "nodeid": 23, "leaf": -0.0249570943 , "cover": 996.308533 }, 
          { "nodeid": 24, "leaf": -0.0141858673 , "cover": 401.365021 }
        ]}, 
        { "nodeid": 12, "depth": 3, "split": "pass_middle", "split_condition": 1, "yes": 25, "no": 26, "missing": 25 , "gain": 320.470184, "cover": 9169.99609, "children": [
          { "nodeid": 25, "leaf": -0.00758540351 , "cover": 6440.3623 }, 
          { "nodeid": 26, "leaf": 0.00263498817 , "cover": 2729.63354 }
        ]}
      ]}, 
      { "nodeid": 6, "depth": 2, "split": "air_yards", "split_condition": 24.5, "yes": 13, "no": 14, "missing": 13 , "gain": 127.484863, "cover": 5965.96436, "children": [
        { "nodeid": 13, "depth": 3, "split": "yardline_100", "split_condition": 27.5, "yes": 27, "no": 28, "missing": 27 , "gain": 78.3071289, "cover": 2227.97095, "children": [
          { "nodeid": 27, "leaf": -0.0264821351 , "cover": 443.455658 }, 
          { "nodeid": 28, "leaf": -0.0147200897 , "cover": 1784.51526 }
        ]}, 
        { "nodeid": 14, "depth": 3, "split": "pass_middle", "split_condition": 1, "yes": 29, "no": 30, "missing": 29 , "gain": 14.3261719, "cover": 3737.99341, "children": [
          { "nodeid": 29, "leaf": -0.0254378151 , "cover": 2995.78711 }, 
          { "nodeid": 30, "leaf": -0.0214308929 , "cover": 742.206421 }
        ]}
      ]}
    ]}
  ]},
  { "nodeid": 0, "depth": 0, "split": "distance_to_sticks", "split_condition": -0.5, "yes": 1, "no": 2, "missing": 1 , "gain": 5732.74951, "cover": 46263.4688, "children": [
    { "nodeid": 1, "depth": 1, "split": "distance_to_sticks", "split_condition": -10.5, "yes": 3, "no": 4, "missing": 3 , "gain": 463.998779, "cover": 24608.1367, "children": [
      { "nodeid": 3, "depth": 2, "split": "pass_middle", "split_condition": 1, "yes": 7, "no": 8, "missing": 7 , "gain": 50.3881836, "cover": 5807.52881, "children": [
        { "nodeid": 7, "depth": 3, "split": "era2", "split_condition": 1, "yes": 15, "no": 16, "missing": 15 , "gain": 33.3511963, "cover": 4946.7793, "children": [
          { "nodeid": 15, "leaf": 0.0175452512 , "cover": 2372.73877 }, 
          { "nodeid": 16, "leaf": 0.0134139052 , "cover": 2574.04053 }
        ]}, 
        { "nodeid": 8, "depth": 3, "split": "ydstogo", "split_condition": 15, "yes": 17, "no": 18, "missing": 17 , "gain": 23.1542587, "cover": 860.749756, "children": [
          { "nodeid": 17, "leaf": 0.00447110413 , "cover": 406.037659 }, 
          { "nodeid": 18, "leaf": 0.0126973158 , "cover": 454.712067 }
        ]}
      ]}, 
      { "nodeid": 4, "depth": 2, "split": "down3", "split_condition": 1, "yes": 9, "no": 10, "missing": 9 , "gain": 179.469238, "cover": 18800.6074, "children": [
        { "nodeid": 9, "depth": 3, "split": "distance_to_sticks", "split_condition": -3.5, "yes": 19, "no": 20, "missing": 19 , "gain": 96.059082, "cover": 14848.2705, "children": [
          { "nodeid": 19, "leaf": 0.00878832769 , "cover": 11012.377 }, 
          { "nodeid": 20, "leaf": 0.00419280073 , "cover": 3835.89282 }
        ]}, 
        { "nodeid": 10, "depth": 3, "split": "distance_to_sticks", "split_condition": -5.5, "yes": 21, "no": 22, "missing": 21 , "gain": 42.0555992, "cover": 3952.33813, "children": [
          { "nodeid": 21, "leaf": 0.00522635039 , "cover": 1329.74036 }, 
          { "nodeid": 22, "leaf": -0.000230158475 , "cover": 2622.59766 }
        ]}
      ]}
    ]}, 
    { "nodeid": 2, "depth": 1, "split": "distance_to_sticks", "split_condition": 12.5, "yes": 5, "no": 6, "missing": 5 , "gain": 1549.69971, "cover": 21655.332, "children": [
      { "nodeid": 5, "depth": 2, "split": "yardline_100", "split_condition": 22.5, "yes": 11, "no": 12, "missing": 11 , "gain": 695.181274, "cover": 16613.7852, "children": [
        { "nodeid": 11, "depth": 3, "split": "ydstogo", "split_condition": 5, "yes": 23, "no": 24, "missing": 23 , "gain": 126.505859, "cover": 3498.81274, "children": [
          { "nodeid": 23, "leaf": -0.00927935075 , "cover": 1266.68286 }, 
          { "nodeid": 24, "leaf": -0.0191827565 , "cover": 2232.12988 }
        ]}, 
        { "nodeid": 12, "depth": 3, "split": "pass_middle", "split_condition": 1, "yes": 25, "no": 26, "missing": 25 , "gain": 280.600464, "cover": 13114.9727, "children": [
          { "nodeid": 25, "leaf": -0.00534376828 , "cover": 9434.0918 }, 
          { "nodeid": 26, "leaf": 0.00279398798 , "cover": 3680.8811 }
        ]}
      ]}, 
      { "nodeid": 6, "depth": 2, "split": "distance_to_sticks", "split_condition": 19.5, "yes": 13, "no": 14, "missing": 13 , "gain": 60.1784668, "cover": 5041.54736, "children": [
        { "nodeid": 13, "depth": 3, "split": "yardline_100", "split_condition": 29.5, "yes": 27, "no": 28, "missing": 27 , "gain": 58.5394287, "cover": 2309.28027, "children": [
          { "nodeid": 27, "leaf": -0.026260782 , "cover": 486.054871 }, 
          { "nodeid": 28, "leaf": -0.0164593346 , "cover": 1823.22534 }
        ]}, 
        { "nodeid": 14, "depth": 3, "split": "distance_to_sticks", "split_condition": 34.5, "yes": 29, "no": 30, "missing": 29 , "gain": 15.4760742, "cover": 2732.26709, "children": [
          { "nodeid": 29, "leaf": -0.0230828281 , "cover": 2197.55127 }, 
          { "nodeid": 30, "leaf": -0.0279610362 , "cover": 534.715698 }
        ]}
      ]}
    ]}
  ]},
  { "nodeid": 0, "depth": 0, "split": "distance_to_sticks", "split_condition": -0.5, "yes": 1, "no": 2, "missing": 1 , "gain": 5389.60107, "cover": 46142.7852, "children": [
    { "nodeid": 1, "depth": 1, "split": "air_is_zero", "split_condition": 1, "yes": 3, "no": 4, "missing": 3 , "gain": 453.588135, "cover": 24485.5527, "children": [
      { "nodeid": 3, "depth": 2, "split": "distance_to_sticks", "split_condition": -5.5, "yes": 7, "no": 8, "missing": 7 , "gain": 539.087158, "cover": 21930.6934, "children": [
        { "nodeid": 7, "depth": 3, "split": "distance_to_sticks", "split_condition": -8.5, "yes": 15, "no": 16, "missing": 15 , "gain": 82.5957031, "cover": 12404.5137, "children": [
          { "nodeid": 15, "leaf": 0.0143969581 , "cover": 7224.23242 }, 
          { "nodeid": 16, "leaf": 0.0102543617 , "cover": 5180.28125 }
        ]}, 
        { "nodeid": 8, "depth": 3, "split": "ydstogo", "split_condition": 11, "yes": 17, "no": 18, "missing": 17 , "gain": 118.742096, "cover": 9526.17969, "children": [
          { "nodeid": 17, "leaf": 0.00561788632 , "cover": 8703.35645 }, 
          { "nodeid": 18, "leaf": -0.00431392109 , "cover": 822.823059 }
        ]}
      ]}, 
      { "nodeid": 4, "depth": 2, "split": "pass_middle", "split_condition": 1, "yes": 9, "no": 10, "missing": 9 , "gain": 142.820419, "cover": 2554.85913, "children": [
        { "nodeid": 9, "depth": 3, "split": "season", "split_condition": 2015, "yes": 19, "no": 20, "missing": 19 , "gain": 59.5021439, "cover": 2124.94092, "children": [
          { "nodeid": 19, "leaf": -0.0023494307 , "cover": 1367.38867 }, 
          { "nodeid": 20, "leaf": 0.00638008071 , "cover": 757.552368 }
        ]}, 
        { "nodeid": 10, "depth": 3, "split": "ydstogo", "split_condition": 11, "yes": 21, "no": 22, "missing": 21 , "gain": 14.0828094, "cover": 429.91803, "children": [
          { "nodeid": 21, "leaf": -0.0169775467 , "cover": 361.981262 }, 
          { "nodeid": 22, "leaf": -0.00449507171 , "cover": 67.9367676 }
        ]}
      ]}
    ]}, 
    { "nodeid": 2, "depth": 1, "split": "distance_to_sticks", "split_condition": 12.5, "yes": 5, "no": 6, "missing": 5 , "gain": 1472.8667, "cover": 21657.2324, "children": [
      { "nodeid": 5, "depth": 2, "split": "yardline_100", "split_condition": 24.5, "yes": 11, "no": 12, "missing": 11 , "gain": 722.961853, "cover": 16621.6191, "children": [
        { "nodeid": 11, "depth": 3, "split": "ydstogo", "split_condition": 5, "yes": 23, "no": 24, "missing": 23 , "gain": 157.020264, "cover": 3773.21411, "children": [
          { "nodeid": 23, "leaf": -0.00813224539 , "cover": 1323.69519 }, 
          { "nodeid": 24, "leaf": -0.0188278165 , "cover": 2449.51904 }
        ]}, 
        { "nodeid": 12, "depth": 3, "split": "pass_middle", "split_condition": 1, "yes": 25, "no": 26, "missing": 25 , "gain": 266.848755, "cover": 12848.4062, "children": [
          { "nodeid": 25, "leaf": -0.00487746252 , "cover": 9256.08496 }, 
          { "nodeid": 26, "leaf": 0.00314956834 , "cover": 3592.3208 }
        ]}
      ]}, 
      { "nodeid": 6, "depth": 2, "split": "ydstogo", "split_condition": 3, "yes": 13, "no": 14, "missing": 13 , "gain": 48.717041, "cover": 5035.61279, "children": [
        { "nodeid": 13, "depth": 3, "split": "distance_to_sticks", "split_condition": 26.5, "yes": 27, "no": 28, "missing": 27 , "gain": 19.5546951, "cover": 405.111908, "children": [
          { "nodeid": 27, "leaf": -0.00903395843 , "cover": 291.040283 }, 
          { "nodeid": 28, "leaf": -0.0212795604 , "cover": 114.071648 }
        ]}, 
        { "nodeid": 14, "depth": 3, "split": "distance_to_sticks", "split_condition": 17.5, "yes": 29, "no": 30, "missing": 29 , "gain": 34.0651855, "cover": 4630.50098, "children": [
          { "nodeid": 29, "leaf": -0.0187429525 , "cover": 1678.83423 }, 
          { "nodeid": 30, "leaf": -0.0232508928 , "cover": 2951.66675 }
        ]}
      ]}
    ]}
  ]},
  { "nodeid": 0, "depth": 0, "split": "air_yards", "split_condition": 9.5, "yes": 1, "no": 2, "missing": 1 , "gain": 5293.65674, "cover": 46223.0977, "children": [
    { "nodeid": 1, "depth": 1, "split": "qb_hit", "split_condition": 0.5, "yes": 3, "no": 4, "missing": 3 , "gain": 1800.10083, "cover": 29600.9551, "children": [
      { "nodeid": 3, "depth": 2, "split": "yardline_100", "split_condition": 9.5, "yes": 7, "no": 8, "missing": 7 , "gain": 945.586426, "cover": 27468.625, "children": [
        { "nodeid": 7, "depth": 3, "split": "distance_to_sticks", "split_condition": -0.5, "yes": 15, "no": 16, "missing": 15 , "gain": 323.895508, "cover": 2224.35083, "children": [
          { "nodeid": 15, "leaf": 0.0060224589 , "cover": 735.911438 }, 
          { "nodeid": 16, "leaf": -0.0142441532 , "cover": 1488.43958 }
        ]}, 
        { "nodeid": 8, "depth": 3, "split": "air_yards", "split_condition": -0.5, "yes": 17, "no": 18, "missing": 17 , "gain": 623.634766, "cover": 25244.2734, "children": [
          { "nodeid": 17, "leaf": 0.0173975434 , "cover": 4969.40332 }, 
          { "nodeid": 18, "leaf": 0.00751501555 , "cover": 20274.8711 }
        ]}
      ]}, 
      { "nodeid": 4, "depth": 2, "split": "air_is_zero", "split_condition": 1, "yes": 9, "no": 10, "missing": 9 , "gain": 74.7611084, "cover": 2132.33032, "children": [
        { "nodeid": 9, "depth": 3, "split": "yardline_100", "split_condition": 15.5, "yes": 19, "no": 20, "missing": 19 , "gain": 46.0079956, "cover": 1879.98071, "children": [
          { "nodeid": 19, "leaf": -0.0248934571 , "cover": 215.657394 }, 
          { "nodeid": 20, "leaf": -0.0126046939 , "cover": 1664.32324 }
        ]}, 
        { "nodeid": 10, "leaf": -0.0285314713 , "cover": 252.349731 }
      ]}
    ]}, 
    { "nodeid": 2, "depth": 1, "split": "air_yards", "split_condition": 19.5, "yes": 5, "no": 6, "missing": 5 , "gain": 1212.47266, "cover": 16622.1406, "children": [
      { "nodeid": 5, "depth": 2, "split": "yardline_100", "split_condition": 19.5, "yes": 11, "no": 12, "missing": 11 , "gain": 481.339355, "cover": 10635.3232, "children": [
        { "nodeid": 11, "depth": 3, "split": "pass_middle", "split_condition": 1, "yes": 23, "no": 24, "missing": 23 , "gain": 26.923645, "cover": 1251.69958, "children": [
          { "nodeid": 23, "leaf": -0.0230863113 , "cover": 893.638855 }, 
          { "nodeid": 24, "leaf": -0.014879412 , "cover": 358.060699 }
        ]}, 
        { "nodeid": 12, "depth": 3, "split": "pass_middle", "split_condition": 1, "yes": 25, "no": 26, "missing": 25 , "gain": 301.817047, "cover": 9383.62305, "children": [
          { "nodeid": 25, "leaf": -0.00715453411 , "cover": 6612.87939 }, 
          { "nodeid": 26, "leaf": 0.00267334003 , "cover": 2770.74365 }
        ]}
      ]}, 
      { "nodeid": 6, "depth": 2, "split": "air_yards", "split_condition": 24.5, "yes": 13, "no": 14, "missing": 13 , "gain": 112.617188, "cover": 5986.81787, "children": [
        { "nodeid": 13, "depth": 3, "split": "yardline_100", "split_condition": 31.5, "yes": 27, "no": 28, "missing": 27 , "gain": 77.9124756, "cover": 2245.72607, "children": [
          { "nodeid": 27, "leaf": -0.0241473131 , "cover": 535.567566 }, 
          { "nodeid": 28, "leaf": -0.0132009238 , "cover": 1710.15833 }
        ]}, 
        { "nodeid": 14, "depth": 3, "split": "qb_hit", "split_condition": 0.5, "yes": 29, "no": 30, "missing": 29 , "gain": 16.9262695, "cover": 3741.09204, "children": [
          { "nodeid": 29, "leaf": -0.0223124679 , "cover": 3332.38696 }, 
          { "nodeid": 30, "leaf": -0.0278292056 , "cover": 408.704956 }
        ]}
      ]}
    ]}
  ]},
  { "nodeid": 0, "depth": 0, "split": "air_yards", "split_condition": 8.5, "yes": 1, "no": 2, "missing": 1 , "gain": 5130.2627, "cover": 46092.9766, "children": [
    { "nodeid": 1, "depth": 1, "split": "yardline_100", "split_condition": 8.5, "yes": 3, "no": 4, "missing": 3 , "gain": 921.941528, "cover": 28012.6133, "children": [
      { "nodeid": 3, "depth": 2, "split": "distance_to_sticks", "split_condition": -0.5, "yes": 7, "no": 8, "missing": 7 , "gain": 233.208862, "cover": 2105.66284, "children": [
        { "nodeid": 7, "depth": 3, "split": "air_yards", "split_condition": -0.5, "yes": 15, "no": 16, "missing": 15 , "gain": 61.4195709, "cover": 643.704102, "children": [
          { "nodeid": 15, "leaf": 0.0159388613 , "cover": 174.147049 }, 
          { "nodeid": 16, "leaf": -0.00140573818 , "cover": 469.557037 }
        ]}, 
        { "nodeid": 8, "depth": 3, "split": "air_yards", "split_condition": 2.5, "yes": 17, "no": 18, "missing": 17 , "gain": 62.7384033, "cover": 1461.95886, "children": [
          { "nodeid": 17, "leaf": -0.00631747488 , "cover": 401.959412 }, 
          { "nodeid": 18, "leaf": -0.0179368686 , "cover": 1059.99939 }
        ]}
      ]}, 
      { "nodeid": 4, "depth": 2, "split": "air_yards", "split_condition": -0.5, "yes": 9, "no": 10, "missing": 9 , "gain": 596.812012, "cover": 25906.9512, "children": [
        { "nodeid": 9, "depth": 3, "split": "air_yards", "split_condition": -7.5, "yes": 19, "no": 20, "missing": 19 , "gain": 135.719971, "cover": 5309.52197, "children": [
          { "nodeid": 19, "leaf": -0.010045453 , "cover": 126.837975 }, 
          { "nodeid": 20, "leaf": 0.0160660427 , "cover": 5182.68408 }
        ]}, 
        { "nodeid": 10, "depth": 3, "split": "air_yards", "split_condition": 0.5, "yes": 21, "no": 22, "missing": 21 , "gain": 282.777588, "cover": 20597.4277, "children": [
          { "nodeid": 21, "leaf": -0.00194108242 , "cover": 2444.66675 }, 
          { "nodeid": 22, "leaf": 0.00711526209 , "cover": 18152.7617 }
        ]}
      ]}
    ]}, 
    { "nodeid": 2, "depth": 1, "split": "air_yards", "split_condition": 19.5, "yes": 5, "no": 6, "missing": 5 , "gain": 1233.12061, "cover": 18080.3613, "children": [
      { "nodeid": 5, "depth": 2, "split": "yardline_100", "split_condition": 19.5, "yes": 11, "no": 12, "missing": 11 , "gain": 538.488525, "cover": 12115.7197, "children": [
        { "nodeid": 11, "depth": 3, "split": "pass_middle", "split_condition": 1, "yes": 23, "no": 24, "missing": 23 , "gain": 40.0827026, "cover": 1465.81128, "children": [
          { "nodeid": 23, "leaf": -0.0226176269 , "cover": 1054.16858 }, 
          { "nodeid": 24, "leaf": -0.0133546172 , "cover": 411.64267 }
        ]}, 
        { "nodeid": 12, "depth": 3, "split": "pass_middle", "split_condition": 1, "yes": 25, "no": 26, "missing": 25 , "gain": 271.055176, "cover": 10649.9082, "children": [
          { "nodeid": 25, "leaf": -0.00640136842 , "cover": 7590.396 }, 
          { "nodeid": 26, "leaf": 0.00241203932 , "cover": 3059.51245 }
        ]}
      ]}, 
      { "nodeid": 6, "depth": 2, "split": "air_yards", "split_condition": 24.5, "yes": 13, "no": 14, "missing": 13 , "gain": 118.131592, "cover": 5964.6416, "children": [
        { "nodeid": 13, "depth": 3, "split": "yardline_100", "split_condition": 24.5, "yes": 27, "no": 28, "missing": 27 , "gain": 52.7145386, "cover": 2247.13379, "children": [
          { "nodeid": 27, "leaf": -0.0238797758 , "cover": 364.851166 }, 
          { "nodeid": 28, "leaf": -0.013473046 , "cover": 1882.28259 }
        ]}, 
        { "nodeid": 14, "depth": 3, "split": "pass_middle", "split_condition": 1, "yes": 29, "no": 30, "missing": 29 , "gain": 14.574707, "cover": 3717.50781, "children": [
          { "nodeid": 29, "leaf": -0.0232435875 , "cover": 2982.17358 }, 
          { "nodeid": 30, "leaf": -0.0192090105 , "cover": 735.334229 }
        ]}
      ]}
    ]}
  ]},
  { "nodeid": 0, "depth": 0, "split": "distance_to_sticks", "split_condition": -0.5, "yes": 1, "no": 2, "missing": 1 , "gain": 4740.52246, "cover": 46019.293, "children": [
    { "nodeid": 1, "depth": 1, "split": "qb_hit", "split_condition": 0.5, "yes": 3, "no": 4, "missing": 3 , "gain": 1494.57861, "cover": 24290.1309, "children": [
      { "nodeid": 3, "depth": 2, "split": "distance_to_sticks", "split_condition": -10.5, "yes": 7, "no": 8, "missing": 7 , "gain": 383.267578, "cover": 22524.6543, "children": [
        { "nodeid": 7, "depth": 3, "split": "air_is_zero", "split_condition": 1, "yes": 15, "no": 16, "missing": 15 , "gain": 88.2198486, "cover": 5294.31592, "children": [
          { "nodeid": 15, "leaf": 0.0160354208 , "cover": 4965.39502 }, 
          { "nodeid": 16, "leaf": 0.00265736179 , "cover": 328.920746 }
        ]}, 
        { "nodeid": 8, "depth": 3, "split": "air_is_zero", "split_condition": 1, "yes": 17, "no": 18, "missing": 17 , "gain": 225.150146, "cover": 17230.3379, "children": [
          { "nodeid": 17, "leaf": 0.00853862148 , "cover": 15265.4795 }, 
          { "nodeid": 18, "leaf": -0.000452001346 , "cover": 1964.85864 }
        ]}
      ]}, 
      { "nodeid": 4, "depth": 2, "split": "air_is_zero", "split_condition": 1, "yes": 9, "no": 10, "missing": 9 , "gain": 69.7290039, "cover": 1765.47693, "children": [
        { "nodeid": 9, "depth": 3, "split": "season", "split_condition": 2015, "yes": 19, "no": 20, "missing": 19 , "gain": 33.2608948, "cover": 1515.3175, "children": [
          { "nodeid": 19, "leaf": -0.0154888351 , "cover": 924.263184 }, 
          { "nodeid": 20, "leaf": -0.00787219591 , "cover": 591.05426 }
        ]}, 
        { "nodeid": 10, "leaf": -0.0267813895 , "cover": 250.15947 }
      ]}
    ]}, 
    { "nodeid": 2, "depth": 1, "split": "distance_to_sticks", "split_condition": 9.5, "yes": 5, "no": 6, "missing": 5 , "gain": 1323.30884, "cover": 21729.1621, "children": [
      { "nodeid": 5, "depth": 2, "split": "yardline_100", "split_condition": 19.5, "yes": 11, "no": 12, "missing": 11 , "gain": 580.262268, "cover": 14862.3066, "children": [
        { "nodeid": 11, "depth": 3, "split": "ydstogo", "split_condition": 3, "yes": 23, "no": 24, "missing": 23 , "gain": 82.6875, "cover": 2965.35474, "children": [
          { "nodeid": 23, "leaf": -0.0055936398 , "cover": 567.788818 }, 
          { "nodeid": 24, "leaf": -0.0162163842 , "cover": 2397.56592 }
        ]}, 
        { "nodeid": 12, "depth": 3, "split": "qb_hit", "split_condition": 0.5, "yes": 25, "no": 26, "missing": 25 , "gain": 420.315247, "cover": 11896.9512, "children": [
          { "nodeid": 25, "leaf": -0.000365969958 , "cover": 10850.623 }, 
          { "nodeid": 26, "leaf": -0.0169502217 , "cover": 1046.32849 }
        ]}
      ]}, 
      { "nodeid": 6, "depth": 2, "split": "distance_to_sticks", "split_condition": 14.5, "yes": 13, "no": 14, "missing": 13 , "gain": 176.79834, "cover": 6866.85596, "children": [
        { "nodeid": 13, "depth": 3, "split": "pass_middle", "split_condition": 1, "yes": 27, "no": 28, "missing": 27 , "gain": 94.2520752, "cover": 2632.4917, "children": [
          { "nodeid": 27, "leaf": -0.0152811948 , "cover": 1943.77417 }, 
          { "nodeid": 28, "leaf": -0.0045107035 , "cover": 688.71759 }
        ]}, 
        { "nodeid": 14, "depth": 3, "split": "ydstogo", "split_condition": 7, "yes": 29, "no": 30, "missing": 29 , "gain": 45.7961426, "cover": 4234.36426, "children": [
          { "nodeid": 29, "leaf": -0.0166156646 , "cover": 1223.8269 }, 
          { "nodeid": 30, "leaf": -0.0223920327 , "cover": 3010.53735 }
        ]}
      ]}
    ]}
  ]},
  { "nodeid": 0, "depth": 0, "split": "air_yards", "split_condition": 9.5, "yes": 1, "no": 2, "missing": 1 , "gain": 4697.0791, "cover": 45985.1758, "children": [
    { "nodeid": 1, "depth": 1, "split": "distance_to_sticks", "split_condition": -3.5, "yes": 3, "no": 4, "missing": 3 , "gain": 894.258667, "cover": 29372.2773, "children": [
      { "nodeid": 3, "depth": 2, "split": "air_yards", "split_condition": -0.5, "yes": 7, "no": 8, "missing": 7 , "gain": 384.081055, "cover": 18284.1641, "children": [
        { "nodeid": 7, "depth": 3, "split": "air_yards", "split_condition": -7.5, "yes": 15, "no": 16, "missing": 15 , "gain": 151.228516, "cover": 5325.50195, "children": [
          { "nodeid": 15, "leaf": -0.0114540877 , "cover": 130.520493 }, 
          { "nodeid": 16, "leaf": 0.0157233309 , "cover": 5194.98145 }
        ]}, 
        { "nodeid": 8, "depth": 3, "split": "air_yards", "split_condition": 0.5, "yes": 17, "no": 18, "missing": 17 , "gain": 349.722046, "cover": 12958.6631, "children": [
          { "nodeid": 17, "leaf": -0.00187554432 , "cover": 2251.71924 }, 
          { "nodeid": 18, "leaf": 0.00896268431 , "cover": 10706.9434 }
        ]}
      ]}, 
      { "nodeid": 4, "depth": 2, "split": "yardline_100", "split_condition": 9.5, "yes": 9, "no": 10, "missing": 9 , "gain": 565.333557, "cover": 11088.1123, "children": [
        { "nodeid": 9, "depth": 3, "split": "distance_to_sticks", "split_condition": -0.5, "yes": 19, "no": 20, "missing": 19 , "gain": 82.1518555, "cover": 1983.95386, "children": [
          { "nodeid": 19, "leaf": -0.00126609986 , "cover": 382.209686 }, 
          { "nodeid": 20, "leaf": -0.0141681656 , "cover": 1601.74414 }
        ]}, 
        { "nodeid": 10, "depth": 3, "split": "down2", "split_condition": 1, "yes": 21, "no": 22, "missing": 21 , "gain": 112.063904, "cover": 9104.15918, "children": [
          { "nodeid": 21, "leaf": 0.000986040453 , "cover": 5880.46826 }, 
          { "nodeid": 22, "leaf": 0.00678542955 , "cover": 3223.69043 }
        ]}
      ]}
    ]}, 
    { "nodeid": 2, "depth": 1, "split": "air_yards", "split_condition": 19.5, "yes": 5, "no": 6, "missing": 5 , "gain": 953.480225, "cover": 16612.8984, "children": [
      { "nodeid": 5, "depth": 2, "split": "yardline_100", "split_condition": 24.5, "yes": 11, "no": 12, "missing": 11 , "gain": 433.552612, "cover": 10592.0742, "children": [
        { "nodeid": 11, "depth": 3, "split": "pass_middle", "split_condition": 1, "yes": 23, "no": 24, "missing": 23 , "gain": 47.0921021, "cover": 1645.47913, "children": [
          { "nodeid": 23, "leaf": -0.0205135923 , "cover": 1191.55908 }, 
          { "nodeid": 24, "leaf": -0.0110082896 , "cover": 453.920044 }
        ]}, 
        { "nodeid": 12, "depth": 3, "split": "pass_middle", "split_condition": 1, "yes": 25, "no": 26, "missing": 25 , "gain": 264.774139, "cover": 8946.59473, "children": [
          { "nodeid": 25, "leaf": -0.00672511151 , "cover": 6302.25928 }, 
          { "nodeid": 26, "leaf": 0.00269926363 , "cover": 2644.33618 }
        ]}
      ]}, 
      { "nodeid": 6, "depth": 2, "split": "air_yards", "split_condition": 23.5, "yes": 13, "no": 14, "missing": 13 , "gain": 80.9165039, "cover": 6020.82324, "children": [
        { "nodeid": 13, "depth": 3, "split": "yardline_100", "split_condition": 27.5, "yes": 27, "no": 28, "missing": 27 , "gain": 63.3772583, "cover": 1948.60107, "children": [
          { "nodeid": 27, "leaf": -0.0233976673 , "cover": 388.761353 }, 
          { "nodeid": 28, "leaf": -0.0120986728 , "cover": 1559.83972 }
        ]}, 
        { "nodeid": 14, "depth": 3, "split": "air_yards", "split_condition": 38.5, "yes": 29, "no": 30, "missing": 29 , "gain": 19.8171387, "cover": 4072.22241, "children": [
          { "nodeid": 29, "leaf": -0.0195290428 , "cover": 3024.43042 }, 
          { "nodeid": 30, "leaf": -0.023584526 , "cover": 1047.79199 }
        ]}
      ]}
    ]}
  ]},
  { "nodeid": 0, "depth": 0, "split": "air_yards", "split_condition": 7.5, "yes": 1, "no": 2, "missing": 1 , "gain": 4372.73633, "cover": 45947.1055, "children": [
    { "nodeid": 1, "depth": 1, "split": "qb_hit", "split_condition": 0.5, "yes": 3, "no": 4, "missing": 3 , "gain": 1514.66846, "cover": 26116.0879, "children": [
      { "nodeid": 3, "depth": 2, "split": "yardline_100", "split_condition": 7.5, "yes": 7, "no": 8, "missing": 7 , "gain": 764.121582, "cover": 24239.4922, "children": [
        { "nodeid": 7, "depth": 3, "split": "distance_to_sticks", "split_condition": -0.5, "yes": 15, "no": 16, "missing": 15 , "gain": 158.442291, "cover": 1715.47461, "children": [
          { "nodeid": 15, "leaf": 0.00433997391 , "cover": 488.575287 }, 
          { "nodeid": 16, "leaf": -0.0124851903 , "cover": 1226.89929 }
        ]}, 
        { "nodeid": 8, "depth": 3, "split": "air_yards", "split_condition": -0.5, "yes": 17, "no": 18, "missing": 17 , "gain": 471.429688, "cover": 22524.0176, "children": [
          { "nodeid": 17, "leaf": 0.0164626092 , "cover": 4909.36475 }, 
          { "nodeid": 18, "leaf": 0.00770163396 , "cover": 17614.6523 }
        ]}
      ]}, 
      { "nodeid": 4, "depth": 2, "split": "air_is_zero", "split_condition": 1, "yes": 9, "no": 10, "missing": 9 , "gain": 53.8634644, "cover": 1876.5946, "children": [
        { "nodeid": 9, "depth": 3, "split": "yardline_100", "split_condition": 12.5, "yes": 19, "no": 20, "missing": 19 , "gain": 33.2909851, "cover": 1618.23218, "children": [
          { "nodeid": 19, "leaf": -0.0240459181 , "cover": 159.818893 }, 
          { "nodeid": 20, "leaf": -0.0120108714 , "cover": 1458.41333 }
        ]}, 
        { "nodeid": 10, "leaf": -0.0255255196 , "cover": 258.362457 }
      ]}
    ]}, 
    { "nodeid": 2, "depth": 1, "split": "air_yards", "split_condition": 18.5, "yes": 5, "no": 6, "missing": 5 , "gain": 1213.85449, "cover": 19831.0176, "children": [
      { "nodeid": 5, "depth": 2, "split": "yardline_100", "split_condition": 18.5, "yes": 11, "no": 12, "missing": 11 , "gain": 453.812714, "cover": 13148.3213, "children": [
        { "nodeid": 11, "depth": 3, "split": "air_yards", "split_condition": 13.5, "yes": 23, "no": 24, "missing": 23 , "gain": 37.272522, "cover": 1526.57666, "children": [
          { "nodeid": 23, "leaf": -0.0144595644 , "cover": 1015.41974 }, 
          { "nodeid": 24, "leaf": -0.0227829013 , "cover": 511.156921 }
        ]}, 
        { "nodeid": 12, "depth": 3, "split": "qb_hit", "split_condition": 0.5, "yes": 25, "no": 26, "missing": 25 , "gain": 384.034241, "cover": 11621.7441, "children": [
          { "nodeid": 25, "leaf": -0.00131207332 , "cover": 10544.9424 }, 
          { "nodeid": 26, "leaf": -0.0169793237 , "cover": 1076.80188 }
        ]}
      ]}, 
      { "nodeid": 6, "depth": 2, "split": "air_yards", "split_condition": 24.5, "yes": 13, "no": 14, "missing": 13 , "gain": 126.294189, "cover": 6682.69629, "children": [
        { "nodeid": 13, "depth": 3, "split": "yardline_100", "split_condition": 27.5, "yes": 27, "no": 28, "missing": 27 , "gain": 100.885681, "cover": 2905.8457, "children": [
          { "nodeid": 27, "leaf": -0.0231051445 , "cover": 563.336487 }, 
          { "nodeid": 28, "leaf": -0.0113134962 , "cover": 2342.50928 }
        ]}, 
        { "nodeid": 14, "depth": 3, "split": "air_yards", "split_condition": 38.5, "yes": 29, "no": 30, "missing": 29 , "gain": 15.6140137, "cover": 3776.85034, "children": [
          { "nodeid": 29, "leaf": -0.0195168089 , "cover": 2710.90625 }, 
          { "nodeid": 30, "leaf": -0.0231632199 , "cover": 1065.94434 }
        ]}
      ]}
    ]}
  ]},
  { "nodeid": 0, "depth": 0, "split": "distance_to_sticks", "split_condition": -0.5, "yes": 1, "no": 2, "missing": 1 , "gain": 4097.15723, "cover": 45935.8594, "children": [
    { "nodeid": 1, "depth": 1, "split": "qb_hit", "split_condition": 0.5, "yes": 3, "no": 4, "missing": 3 , "gain": 1363.03235, "cover": 24098.6172, "children": [
      { "nodeid": 3, "depth": 2, "split": "distance_to_sticks", "split_condition": -5.5, "yes": 7, "no": 8, "missing": 7 , "gain": 342.287354, "cover": 22315.3438, "children": [
        { "nodeid": 7, "depth": 3, "split": "air_is_zero", "split_condition": 1, "yes": 15, "no": 16, "missing": 15 , "gain": 330.551758, "cover": 13078.8047, "children": [
          { "nodeid": 15, "leaf": 0.0130203171 , "cover": 11260.5439 }, 
          { "nodeid": 16, "leaf": 0.00153170247 , "cover": 1818.2605 }
        ]}, 
        { "nodeid": 8, "depth": 3, "split": "down3", "split_condition": 1, "yes": 17, "no": 18, "missing": 17 , "gain": 93.8040771, "cover": 9236.53809, "children": [
          { "nodeid": 17, "leaf": 0.00662385533 , "cover": 6848.15283 }, 
          { "nodeid": 18, "leaf": 0.000869606738 , "cover": 2388.38525 }
        ]}
      ]}, 
      { "nodeid": 4, "depth": 2, "split": "air_is_zero", "split_condition": 1, "yes": 9, "no": 10, "missing": 9 , "gain": 72.6333618, "cover": 1783.27478, "children": [
        { "nodeid": 9, "depth": 3, "split": "season", "split_condition": 2015, "yes": 19, "no": 20, "missing": 19 , "gain": 21.6227112, "cover": 1526.43909, "children": [
          { "nodeid": 19, "leaf": -0.0142112626 , "cover": 923.287048 }, 
          { "nodeid": 20, "leaf": -0.00809806772 , "cover": 603.152039 }
        ]}, 
        { "nodeid": 10, "leaf": -0.0261782389 , "cover": 256.835754 }
      ]}
    ]}, 
    { "nodeid": 2, "depth": 1, "split": "distance_to_sticks", "split_condition": 9.5, "yes": 5, "no": 6, "missing": 5 , "gain": 1120.20605, "cover": 21837.2422, "children": [
      { "nodeid": 5, "depth": 2, "split": "yardline_100", "split_condition": 21.5, "yes": 11, "no": 12, "missing": 11 , "gain": 490.311462, "cover": 14935.8789, "children": [
        { "nodeid": 11, "depth": 3, "split": "qb_hit", "split_condition": 0.5, "yes": 23, "no": 24, "missing": 23 , "gain": 59.0330811, "cover": 3229.81299, "children": [
          { "nodeid": 23, "leaf": -0.0116065014 , "cover": 2984.85254 }, 
          { "nodeid": 24, "leaf": -0.0243759956 , "cover": 244.960312 }
        ]}, 
        { "nodeid": 12, "depth": 3, "split": "qb_hit", "split_condition": 0.5, "yes": 25, "no": 26, "missing": 25 , "gain": 363.222778, "cover": 11706.0664, "children": [
          { "nodeid": 25, "leaf": -0.000205226635 , "cover": 10666.3652 }, 
          { "nodeid": 26, "leaf": -0.0156784225 , "cover": 1039.70068 }
        ]}
      ]}, 
      { "nodeid": 6, "depth": 2, "split": "distance_to_sticks", "split_condition": 14.5, "yes": 13, "no": 14, "missing": 13 , "gain": 121.140137, "cover": 6901.36377, "children": [
        { "nodeid": 13, "depth": 3, "split": "pass_middle", "split_condition": 1, "yes": 27, "no": 28, "missing": 27 , "gain": 87.5726929, "cover": 2651.16528, "children": [
          { "nodeid": 27, "leaf": -0.0145949377 , "cover": 1974.82507 }, 
          { "nodeid": 28, "leaf": -0.00416472647 , "cover": 676.340271 }
        ]}, 
        { "nodeid": 14, "depth": 3, "split": "qb_hit", "split_condition": 0.5, "yes": 29, "no": 30, "missing": 29 , "gain": 22.661377, "cover": 4250.19824, "children": [
          { "nodeid": 29, "leaf": -0.0181241091 , "cover": 3810.22485 }, 
          { "nodeid": 30, "leaf": -0.0241841525 , "cover": 439.973236 }
        ]}
      ]}
    ]}
  ]},
  { "nodeid": 0, "depth": 0, "split": "air_yards", "split_condition": 9.5, "yes": 1, "no": 2, "missing": 1 , "gain": 4026.36279, "cover": 45851.1445, "children": [
    { "nodeid": 1, "depth": 1, "split": "qb_hit", "split_condition": 0.5, "yes": 3, "no": 4, "missing": 3 , "gain": 1474.32422, "cover": 29189.8887, "children": [
      { "nodeid": 3, "depth": 2, "split": "distance_to_sticks", "split_condition": -3.5, "yes": 7, "no": 8, "missing": 7 , "gain": 768.623291, "cover": 27052.0273, "children": [
        { "nodeid": 7, "depth": 3, "split": "air_is_zero", "split_condition": 1, "yes": 15, "no": 16, "missing": 15 , "gain": 339.821777, "cover": 16772.8203, "children": [
          { "nodeid": 15, "leaf": 0.0117804436 , "cover": 14739.209 }, 
          { "nodeid": 16, "leaf": 0.000878250052 , "cover": 2033.61096 }
        ]}, 
        { "nodeid": 8, "depth": 3, "split": "distance_to_sticks", "split_condition": -0.5, "yes": 17, "no": 18, "missing": 17 , "gain": 63.3497658, "cover": 10279.207, "children": [
          { "nodeid": 17, "leaf": 0.00385809247 , "cover": 4837.29688 }, 
          { "nodeid": 18, "leaf": -7.36950387e-05 , "cover": 5441.91016 }
        ]}
      ]}, 
      { "nodeid": 4, "depth": 2, "split": "air_is_zero", "split_condition": 1, "yes": 9, "no": 10, "missing": 9 , "gain": 49.4786987, "cover": 2137.8623, "children": [
        { "nodeid": 9, "depth": 3, "split": "season", "split_condition": 2011, "yes": 19, "no": 20, "missing": 19 , "gain": 44.9002991, "cover": 1881.17297, "children": [
          { "nodeid": 19, "leaf": -0.018798409 , "cover": 576.480957 }, 
          { "nodeid": 20, "leaf": -0.0104014855 , "cover": 1304.69202 }
        ]}, 
        { "nodeid": 10, "leaf": -0.0247029755 , "cover": 256.689392 }
      ]}
    ]}, 
    { "nodeid": 2, "depth": 1, "split": "air_yards", "split_condition": 19.5, "yes": 5, "no": 6, "missing": 5 , "gain": 851.831055, "cover": 16661.2559, "children": [
      { "nodeid": 5, "depth": 2, "split": "pass_middle", "split_condition": 1, "yes": 11, "no": 12, "missing": 11 , "gain": 290.175293, "cover": 10634.5254, "children": [
        { "nodeid": 11, "depth": 3, "split": "qb_hit", "split_condition": 0.5, "yes": 23, "no": 24, "missing": 23 , "gain": 173.134521, "cover": 7512.19775, "children": [
          { "nodeid": 23, "leaf": -0.00698755262 , "cover": 6789.53516 }, 
          { "nodeid": 24, "leaf": -0.0198548958 , "cover": 722.662598 }
        ]}, 
        { "nodeid": 12, "depth": 3, "split": "qb_hit", "split_condition": 0.5, "yes": 25, "no": 26, "missing": 25 , "gain": 64.1283493, "cover": 3122.32788, "children": [
          { "nodeid": 25, "leaf": 0.00198757206 , "cover": 2832.16064 }, 
          { "nodeid": 26, "leaf": -0.0103332689 , "cover": 290.167206 }
        ]}
      ]}, 
      { "nodeid": 6, "depth": 2, "split": "air_yards", "split_condition": 25.5, "yes": 13, "no": 14, "missing": 13 , "gain": 82.2470703, "cover": 6026.72949, "children": [
        { "nodeid": 13, "depth": 3, "split": "pass_middle", "split_condition": 1, "yes": 27, "no": 28, "missing": 27 , "gain": 36.3683472, "cover": 2615.03711, "children": [
          { "nodeid": 27, "leaf": -0.0155914193 , "cover": 2016.15747 }, 
          { "nodeid": 28, "leaf": -0.00854994263 , "cover": 598.879639 }
        ]}, 
        { "nodeid": 14, "depth": 3, "split": "qb_hit", "split_condition": 0.5, "yes": 29, "no": 30, "missing": 29 , "gain": 20.2495117, "cover": 3411.69263, "children": [
          { "nodeid": 29, "leaf": -0.0192092489 , "cover": 3047.70215 }, 
          { "nodeid": 30, "leaf": -0.0255369041 , "cover": 363.990326 }
        ]}
      ]}
    ]}
  ]},
  { "nodeid": 0, "depth": 0, "split": "air_yards", "split_condition": 7.5, "yes": 1, "no": 2, "missing": 1 , "gain": 3854.32202, "cover": 45785.3984, "children": [
    { "nodeid": 1, "depth": 1, "split": "yardline_100", "split_condition": 7.5, "yes": 3, "no": 4, "missing": 3 , "gain": 691.74353, "cover": 25946.9102, "children": [
      { "nodeid": 3, "depth": 2, "split": "distance_to_sticks", "split_condition": -1.5, "yes": 7, "no": 8, "missing": 7 , "gain": 135.735962, "cover": 1843.52051, "children": [
        { "nodeid": 7, "depth": 3, "split": "air_yards", "split_condition": -0.5, "yes": 15, "no": 16, "missing": 15 , "gain": 30.822525, "cover": 387.183655, "children": [
          { "nodeid": 15, "leaf": 0.0139822662 , "cover": 142.302643 }, 
          { "nodeid": 16, "leaf": -0.000613195938 , "cover": 244.881012 }
        ]}, 
        { "nodeid": 8, "depth": 3, "split": "air_yards", "split_condition": 2.5, "yes": 17, "no": 18, "missing": 17 , "gain": 56.493866, "cover": 1456.33679, "children": [
          { "nodeid": 17, "leaf": -0.00468341587 , "cover": 466.476776 }, 
          { "nodeid": 18, "leaf": -0.0152478833 , "cover": 989.860046 }
        ]}
      ]}, 
      { "nodeid": 4, "depth": 2, "split": "air_yards", "split_condition": -0.5, "yes": 9, "no": 10, "missing": 9 , "gain": 427.911621, "cover": 24103.3887, "children": [
        { "nodeid": 9, "depth": 3, "split": "air_yards", "split_condition": -6.5, "yes": 19, "no": 20, "missing": 19 , "gain": 135.268433, "cover": 5158.14062, "children": [
          { "nodeid": 19, "leaf": -0.00315280934 , "cover": 275.032227 }, 
          { "nodeid": 20, "leaf": 0.0148562761 , "cover": 4883.1084 }
        ]}, 
        { "nodeid": 10, "depth": 3, "split": "air_yards", "split_condition": 0.5, "yes": 21, "no": 22, "missing": 21 , "gain": 293.203369, "cover": 18945.248, "children": [
          { "nodeid": 21, "leaf": -0.0022983246 , "cover": 2448.59937 }, 
          { "nodeid": 22, "leaf": 0.00697164843 , "cover": 16496.6484 }
        ]}
      ]}
    ]}, 
    { "nodeid": 2, "depth": 1, "split": "air_yards", "split_condition": 18.5, "yes": 5, "no": 6, "missing": 5 , "gain": 984.404053, "cover": 19838.4902, "children": [
      { "nodeid": 5, "depth": 2, "split": "yardline_100", "split_condition": 18.5, "yes": 11, "no": 12, "missing": 11 , "gain": 433.75943, "cover": 13146.6699, "children": [
        { "nodeid": 11, "depth": 3, "split": "air_yards", "split_condition": 13.5, "yes": 23, "no": 24, "missing": 23 , "gain": 36.894043, "cover": 1539.97949, "children": [
          { "nodeid": 23, "leaf": -0.0139521835 , "cover": 1019.75708 }, 
          { "nodeid": 24, "leaf": -0.0221766364 , "cover": 520.222412 }
        ]}, 
        { "nodeid": 12, "depth": 3, "split": "down3", "split_condition": 1, "yes": 25, "no": 26, "missing": 25 , "gain": 134.023407, "cover": 11606.6904, "children": [
          { "nodeid": 25, "leaf": -0.000825254887 , "cover": 8009.50244 }, 
          { "nodeid": 26, "leaf": -0.00663380837 , "cover": 3597.18848 }
        ]}
      ]}, 
      { "nodeid": 6, "depth": 2, "split": "air_yards", "split_condition": 26.5, "yes": 13, "no": 14, "missing": 13 , "gain": 116.321533, "cover": 6691.81982, "children": [
        { "nodeid": 13, "depth": 3, "split": "yardline_100", "split_condition": 35.5, "yes": 27, "no": 28, "missing": 27 , "gain": 99.1776733, "cover": 3519.94922, "children": [
          { "nodeid": 27, "leaf": -0.01967646 , "cover": 980.788574 }, 
          { "nodeid": 28, "leaf": -0.0103076827 , "cover": 2539.16064 }
        ]}, 
        { "nodeid": 14, "depth": 3, "split": "dome", "split_condition": 1, "yes": 29, "no": 30, "missing": 29 , "gain": 12.3479004, "cover": 3171.87085, "children": [
          { "nodeid": 29, "leaf": -0.0201755501 , "cover": 2725.71509 }, 
          { "nodeid": 30, "leaf": -0.0155840097 , "cover": 446.155731 }
        ]}
      ]}
    ]}
  ]},
  { "nodeid": 0, "depth": 0, "split": "air_yards", "split_condition": 9.5, "yes": 1, "no": 2, "missing": 1 , "gain": 3662.01782, "cover": 45708.4023, "children": [
    { "nodeid": 1, "depth": 1, "split": "qb_hit", "split_condition": 0.5, "yes": 3, "no": 4, "missing": 3 , "gain": 1397.07849, "cover": 29027.7695, "children": [
      { "nodeid": 3, "depth": 2, "split": "distance_to_sticks", "split_condition": -3.5, "yes": 7, "no": 8, "missing": 7 , "gain": 691.535645, "cover": 26875.3887, "children": [
        { "nodeid": 7, "depth": 3, "split": "air_is_zero", "split_condition": 1, "yes": 15, "no": 16, "missing": 15 , "gain": 303.25415, "cover": 16655.6035, "children": [
          { "nodeid": 15, "leaf": 0.0112179918 , "cover": 14602.8936 }, 
          { "nodeid": 16, "leaf": 0.00095534866 , "cover": 2052.71045 }
        ]}, 
        { "nodeid": 8, "depth": 3, "split": "yardline_100", "split_condition": 9.5, "yes": 17, "no": 18, "missing": 17 , "gain": 448.822876, "cover": 10219.7861, "children": [
          { "nodeid": 17, "leaf": -0.0095109595 , "cover": 1832.99353 }, 
          { "nodeid": 18, "leaf": 0.00414179778 , "cover": 8386.79199 }
        ]}
      ]}, 
      { "nodeid": 4, "depth": 2, "split": "air_is_zero", "split_condition": 1, "yes": 9, "no": 10, "missing": 9 , "gain": 49.5725708, "cover": 2152.37939, "children": [
        { "nodeid": 9, "depth": 3, "split": "season", "split_condition": 2015, "yes": 19, "no": 20, "missing": 19 , "gain": 43.706665, "cover": 1894.17737, "children": [
          { "nodeid": 19, "leaf": -0.0157844555 , "cover": 1142.46704 }, 
          { "nodeid": 20, "leaf": -0.00800398458 , "cover": 751.710327 }
        ]}, 
        { "nodeid": 10, "leaf": -0.0243967623 , "cover": 258.201996 }
      ]}
    ]}, 
    { "nodeid": 2, "depth": 1, "split": "air_yards", "split_condition": 21.5, "yes": 5, "no": 6, "missing": 5 , "gain": 761.604248, "cover": 16680.6328, "children": [
      { "nodeid": 5, "depth": 2, "split": "yardline_100", "split_condition": 24.5, "yes": 11, "no": 12, "missing": 11 , "gain": 421.380005, "cover": 11803.667, "children": [
        { "nodeid": 11, "depth": 3, "split": "air_yards", "split_condition": 13.5, "yes": 23, "no": 24, "missing": 23 , "gain": 34.6616211, "cover": 1836.30334, "children": [
          { "nodeid": 23, "leaf": -0.0130620496 , "cover": 799.542908 }, 
          { "nodeid": 24, "leaf": -0.0200316887 , "cover": 1036.76038 }
        ]}, 
        { "nodeid": 12, "depth": 3, "split": "pass_middle", "split_condition": 1, "yes": 25, "no": 26, "missing": 25 , "gain": 250.253098, "cover": 9967.36328, "children": [
          { "nodeid": 25, "leaf": -0.00651447568 , "cover": 7064.81885 }, 
          { "nodeid": 26, "leaf": 0.00220398698 , "cover": 2902.54443 }
        ]}
      ]}, 
      { "nodeid": 6, "depth": 2, "split": "air_yards", "split_condition": 27.5, "yes": 13, "no": 14, "missing": 13 , "gain": 27.7226562, "cover": 4876.9668, "children": [
        { "nodeid": 13, "depth": 3, "split": "yardline_100", "split_condition": 27.5, "yes": 27, "no": 28, "missing": 27 , "gain": 34.8458252, "cover": 1987.89514, "children": [
          { "nodeid": 27, "leaf": -0.0224399623 , "cover": 365.977203 }, 
          { "nodeid": 28, "leaf": -0.0138630811 , "cover": 1621.91797 }
        ]}, 
        { "nodeid": 14, "depth": 3, "split": "pass_middle", "split_condition": 1, "yes": 29, "no": 30, "missing": 29 , "gain": 10.4681396, "cover": 2889.07178, "children": [
          { "nodeid": 29, "leaf": -0.0201093443 , "cover": 2287.33813 }, 
          { "nodeid": 30, "leaf": -0.0163019504 , "cover": 601.733582 }
        ]}
      ]}
    ]}
  ]},
  { "nodeid": 0, "depth": 0, "split": "air_yards", "split_condition": 7.5, "yes": 1, "no": 2, "missing": 1 , "gain": 3509.68872, "cover": 45681.2344, "children": [
    { "nodeid": 1, "depth": 1, "split": "qb_hit", "split_condition": 0.5, "yes": 3, "no": 4, "missing": 3 , "gain": 1202.71033, "cover": 25853.8418, "children": [
      { "nodeid": 3, "depth": 2, "split": "yardline_100", "split_condition": 7.5, "yes": 7, "no": 8, "missing": 7 , "gain": 654.337891, "cover": 23970.4805, "children": [
        { "nodeid": 7, "depth": 3, "split": "air_yards", "split_condition": -0.5, "yes": 15, "no": 16, "missing": 15 , "gain": 120.791428, "cover": 1720.7207, "children": [
          { "nodeid": 15, "leaf": 0.0160813201 , "cover": 127.327652 }, 
          { "nodeid": 16, "leaf": -0.00913951173 , "cover": 1593.39307 }
        ]}, 
        { "nodeid": 8, "depth": 3, "split": "air_yards", "split_condition": -0.5, "yes": 17, "no": 18, "missing": 17 , "gain": 433.829834, "cover": 22249.7598, "children": [
          { "nodeid": 17, "leaf": 0.0154117933 , "cover": 4774.34033 }, 
          { "nodeid": 18, "leaf": 0.00690796226 , "cover": 17475.4199 }
        ]}
      ]}, 
      { "nodeid": 4, "depth": 2, "split": "air_is_zero", "split_condition": 1, "yes": 9, "no": 10, "missing": 9 , "gain": 58.9718018, "cover": 1883.36084, "children": [
        { "nodeid": 9, "depth": 3, "split": "yardline_100", "split_condition": 11.5, "yes": 19, "no": 20, "missing": 19 , "gain": 40.1951904, "cover": 1628.99707, "children": [
          { "nodeid": 19, "leaf": -0.0240955856 , "cover": 141.749084 }, 
          { "nodeid": 20, "leaf": -0.0101720802 , "cover": 1487.24805 }
        ]}, 
        { "nodeid": 10, "leaf": -0.0243487023 , "cover": 254.363739 }
      ]}
    ]}, 
    { "nodeid": 2, "depth": 1, "split": "air_yards", "split_condition": 18.5, "yes": 5, "no": 6, "missing": 5 , "gain": 962.480225, "cover": 19827.3906, "children": [
      { "nodeid": 5, "depth": 2, "split": "yardline_100", "split_condition": 18.5, "yes": 11, "no": 12, "missing": 11 , "gain": 383.25238, "cover": 13164.6846, "children": [
        { "nodeid": 11, "depth": 3, "split": "pass_middle", "split_condition": 1, "yes": 23, "no": 24, "missing": 23 , "gain": 33.1691895, "cover": 1533.92798, "children": [
          { "nodeid": 23, "leaf": -0.0181168914 , "cover": 1080.19727 }, 
          { "nodeid": 24, "leaf": -0.0100215003 , "cover": 453.730682 }
        ]}, 
        { "nodeid": 12, "depth": 3, "split": "qb_hit", "split_condition": 0.5, "yes": 25, "no": 26, "missing": 25 , "gain": 316.994324, "cover": 11630.7568, "children": [
          { "nodeid": 25, "leaf": -0.00111594494 , "cover": 10547.8262 }, 
          { "nodeid": 26, "leaf": -0.0153134093 , "cover": 1082.93054 }
        ]}
      ]}, 
      { "nodeid": 6, "depth": 2, "split": "air_yards", "split_condition": 24.5, "yes": 13, "no": 14, "missing": 13 , "gain": 107.679932, "cover": 6662.70703, "children": [
        { "nodeid": 13, "depth": 3, "split": "yardline_100", "split_condition": 34.5, "yes": 27, "no": 28, "missing": 27 , "gain": 86.4280396, "cover": 2908.87549, "children": [
          { "nodeid": 27, "leaf": -0.01916508 , "cover": 777.64917 }, 
          { "nodeid": 28, "leaf": -0.00942029245 , "cover": 2131.22632 }
        ]}, 
        { "nodeid": 14, "depth": 3, "split": "qb_hit", "split_condition": 0.5, "yes": 29, "no": 30, "missing": 29 , "gain": 19.21521, "cover": 3753.8313, "children": [
          { "nodeid": 29, "leaf": -0.0178160314 , "cover": 3351.47095 }, 
          { "nodeid": 30, "leaf": -0.0236727409 , "cover": 402.360352 }
        ]}
      ]}
    ]}
  ]},
  { "nodeid": 0, "depth": 0, "split": "air_yards", "split_condition": 7.5, "yes": 1, "no": 2, "missing": 1 , "gain": 3155.10498, "cover": 45553.9922, "children": [
    { "nodeid": 1, "depth": 1, "split": "qb_hit", "split_condition": 0.5, "yes": 3, "no": 4, "missing": 3 , "gain": 1168.39929, "cover": 25762.8496, "children": [
      { "nodeid": 3, "depth": 2, "split": "yardline_100", "split_condition": 7.5, "yes": 7, "no": 8, "missing": 7 , "gain": 603.783447, "cover": 23864.1055, "children": [
        { "nodeid": 7, "depth": 3, "split": "air_yards", "split_condition": 2.5, "yes": 15, "no": 16, "missing": 15 , "gain": 127.235519, "cover": 1728.31995, "children": [
          { "nodeid": 15, "leaf": 0.000906141591 , "cover": 743.261658 }, 
          { "nodeid": 16, "leaf": -0.0127907908 , "cover": 985.058289 }
        ]}, 
        { "nodeid": 8, "depth": 3, "split": "air_yards", "split_condition": -0.5, "yes": 17, "no": 18, "missing": 17 , "gain": 359.87207, "cover": 22135.7852, "children": [
          { "nodeid": 17, "leaf": 0.0145371137 , "cover": 4746.55225 }, 
          { "nodeid": 18, "leaf": 0.00676995236 , "cover": 17389.2324 }
        ]}
      ]}, 
      { "nodeid": 4, "depth": 2, "split": "season", "split_condition": 2011, "yes": 9, "no": 10, "missing": 9 , "gain": 31.4693604, "cover": 1898.74536, "children": [
        { "nodeid": 9, "depth": 3, "split": "yardline_100", "split_condition": 9.5, "yes": 19, "no": 20, "missing": 19 , "gain": 13.5069275, "cover": 605.67749, "children": [
          { "nodeid": 19, "leaf": -0.0313645117 , "cover": 42.7111893 }, 
          { "nodeid": 20, "leaf": -0.0166724306 , "cover": 562.966309 }
        ]}, 
        { "nodeid": 10, "depth": 3, "split": "ydstogo", "split_condition": 16, "yes": 21, "no": 22, "missing": 21 , "gain": 17.5970154, "cover": 1293.06787, "children": [
          { "nodeid": 21, "leaf": -0.011453771 , "cover": 1236.11829 }, 
          { "nodeid": 22, "leaf": 0.00271643372 , "cover": 56.9495697 }
        ]}
      ]}
    ]}, 
    { "nodeid": 2, "depth": 1, "split": "air_yards", "split_condition": 19.5, "yes": 5, "no": 6, "missing": 5 , "gain": 901.460205, "cover": 19791.1426, "children": [
      { "nodeid": 5, "depth": 2, "split": "yardline_100", "split_condition": 24.5, "yes": 11, "no": 12, "missing": 11 , "gain": 366.342865, "cover": 13804.9932, "children": [
        { "nodeid": 11, "depth": 3, "split": "air_yards", "split_condition": 13.5, "yes": 23, "no": 24, "missing": 23 , "gain": 50.6964111, "cover": 2200.14502, "children": [
          { "nodeid": 23, "leaf": -0.0102776801 , "cover": 1355.56506 }, 
          { "nodeid": 24, "leaf": -0.0180986375 , "cover": 844.579956 }
        ]}, 
        { "nodeid": 12, "depth": 3, "split": "qb_hit", "split_condition": 0.5, "yes": 25, "no": 26, "missing": 25 , "gain": 330.381073, "cover": 11604.8486, "children": [
          { "nodeid": 25, "leaf": -0.000807487348 , "cover": 10520.7686 }, 
          { "nodeid": 26, "leaf": -0.0152963568 , "cover": 1084.07971 }
        ]}
      ]}, 
      { "nodeid": 6, "depth": 2, "split": "air_yards", "split_condition": 26.5, "yes": 13, "no": 14, "missing": 13 , "gain": 66.4187012, "cover": 5986.14893, "children": [
        { "nodeid": 13, "depth": 3, "split": "yardline_100", "split_condition": 35.5, "yes": 27, "no": 28, "missing": 27 , "gain": 63.2739868, "cover": 2848.88989, "children": [
          { "nodeid": 27, "leaf": -0.0187268183 , "cover": 803.352417 }, 
          { "nodeid": 28, "leaf": -0.0104339598 , "cover": 2045.53748 }
        ]}, 
        { "nodeid": 14, "depth": 3, "split": "distance_to_sticks", "split_condition": 34.5, "yes": 29, "no": 30, "missing": 29 , "gain": 12.3747559, "cover": 3137.25903, "children": [
          { "nodeid": 29, "leaf": -0.0173328519 , "cover": 2602.49683 }, 
          { "nodeid": 30, "leaf": -0.0215920657 , "cover": 534.762085 }
        ]}
      ]}
    ]}
  ]},
  { "nodeid": 0, "depth": 0, "split": "air_yards", "split_condition": 7.5, "yes": 1, "no": 2, "missing": 1 , "gain": 3281.52197, "cover": 45595.4492, "children": [
    { "nodeid": 1, "depth": 1, "split": "yardline_100", "split_condition": 7.5, "yes": 3, "no": 4, "missing": 3 , "gain": 573.866943, "cover": 25775.2285, "children": [
      { "nodeid": 3, "depth": 2, "split": "distance_to_sticks", "split_condition": -1.5, "yes": 7, "no": 8, "missing": 7 , "gain": 131.324585, "cover": 1840.04065, "children": [
        { "nodeid": 7, "depth": 3, "split": "air_yards", "split_condition": -0.5, "yes": 15, "no": 16, "missing": 15 , "gain": 29.2977428, "cover": 375.589905, "children": [
          { "nodeid": 15, "leaf": 0.0148920957 , "cover": 135.169144 }, 
          { "nodeid": 16, "leaf": 0.000377173594 , "cover": 240.420776 }
        ]}, 
        { "nodeid": 8, "depth": 3, "split": "air_yards", "split_condition": 3.5, "yes": 17, "no": 18, "missing": 17 , "gain": 42.6019592, "cover": 1464.45068, "children": [
          { "nodeid": 17, "leaf": -0.00639628945 , "cover": 689.504272 }, 
          { "nodeid": 18, "leaf": -0.0149520999 , "cover": 774.946472 }
        ]}
      ]}, 
      { "nodeid": 4, "depth": 2, "split": "air_yards", "split_condition": -0.5, "yes": 9, "no": 10, "missing": 9 , "gain": 393.993652, "cover": 23935.1875, "children": [
        { "nodeid": 9, "depth": 3, "split": "air_yards", "split_condition": -6.5, "yes": 19, "no": 20, "missing": 19 , "gain": 127.947876, "cover": 5059.27588, "children": [
          { "nodeid": 19, "leaf": -0.00374349556 , "cover": 265.711243 }, 
          { "nodeid": 20, "leaf": 0.0140662938 , "cover": 4793.56494 }
        ]}, 
